{"learner":{"attributes":{"scikit_learn":"{\"_estimator_type\": \"regressor\"}"},"feature_names":["op1","op2","op3","sensor2","sensor3","sensor4","sensor7","sensor9","sensor11","sensor12","sensor14","sensor17","sensor20","sensor21","sensor2_mean5","sensor2_std5","sensor2_mean10","sensor2_std10","sensor3_mean5","sensor3_std5","sensor3_mean10","sensor3_std10","sensor4_mean5","sensor4_std5","sensor4_mean10","sensor4_std10","sensor7_mean5","sensor7_std5","sensor7_mean10","sensor7_std10","sensor9_mean5","sensor9_std5","sensor9_mean10","sensor9_std10","sensor11_mean5","sensor11_std5","sensor11_mean10","sensor11_std10","sensor12_mean5","sensor12_std5","sensor12_mean10","sensor12_std10","sensor14_mean5","sensor14_std5","sensor14_mean10","sensor14_std10","sensor17_mean5","sensor17_std5","sensor17_mean10","sensor17_std10","sensor20_mean5","sensor20_std5","sensor20_mean10","sensor20_std10","sensor21_mean5","sensor21_std5","sensor21_mean10","sensor21_std10"],"feature_types":["float","float","float","float","float","float","float","float","float","float","float","float","float","float","float","float","float","float","float","float","float","float","float","float","float","float","float","float","float","float","float","float","float","float","float","float","float","float","float","float","float","float","float","float","float","float","float","float","float","float","float","float","float","float","float","float","float","float"],"gradient_booster":{"model":{"cats":{"enc":[],"feature_segments":[],"sorted_idx":[]},"gbtree_model_param":{"num_parallel_tree":"1","num_trees":"306"},"iteration_indptr":[0,1,2,3,4,5,6,7,8,9,10,11,12,13,14,15,16,17,18,19,20,21,22,23,24,25,26,27,28,29,30,31,32,33,34,35,36,37,38,39,40,41,42,43,44,45,46,47,48,49,50,51,52,53,54,55,56,57,58,59,60,61,62,63,64,65,66,67,68,69,70,71,72,73,74,75,76,77,78,79,80,81,82,83,84,85,86,87,88,89,90,91,92,93,94,95,96,97,98,99,100,101,102,103,104,105,106,107,108,109,110,111,112,113,114,115,116,117,118,119,120,121,122,123,124,125,126,127,128,129,130,131,132,133,134,135,136,137,138,139,140,141,142,143,144,145,146,147,148,149,150,151,152,153,154,155,156,157,158,159,160,161,162,163,164,165,166,167,168,169,170,171,172,173,174,175,176,177,178,179,180,181,182,183,184,185,186,187,188,189,190,191,192,193,194,195,196,197,198,199,200,201,202,203,204,205,206,207,208,209,210,211,212,213,214,215,216,217,218,219,220,221,222,223,224,225,226,227,228,229,230,231,232,233,234,235,236,237,238,239,240,241,242,243,244,245,246,247,248,249,250,251,252,253,254,255,256,257,258,259,260,261,262,263,264,265,266,267,268,269,270,271,272,273,274,275,276,277,278,279,280,281,282,283,284,285,286,287,288,289,290,291,292,293,294,295,296,297,298,299,300,301,302,303,304,305,306],"tree_info":[0,0,0,0,0,0,0,0,0,0,0,0,0,0,0,0,0,0,0,0,0,0,0,0,0,0,0,0,0,0,0,0,0,0,0,0,0,0,0,0,0,0,0,0,0,0,0,0,0,0,0,0,0,0,0,0,0,0,0,0,0,0,0,0,0,0,0,0,0,0,0,0,0,0,0,0,0,0,0,0,0,0,0,0,0,0,0,0,0,0,0,0,0,0,0,0,0,0,0,0,0,0,0,0,0,0,0,0,0,0,0,0,0,0,0,0,0,0,0,0,0,0,0,0,0,0,0,0,0,0,0,0,0,0,0,0,0,0,0,0,0,0,0,0,0,0,0,0,0,0,0,0,0,0,0,0,0,0,0,0,0,0,0,0,0,0,0,0,0,0,0,0,0,0,0,0,0,0,0,0,0,0,0,0,0,0,0,0,0,0,0,0,0,0,0,0,0,0,0,0,0,0,0,0,0,0,0,0,0,0,0,0,0,0,0,0,0,0,0,0,0,0,0,0,0,0,0,0,0,0,0,0,0,0,0,0,0,0,0,0,0,0,0,0,0,0,0,0,0,0,0,0,0,0,0,0,0,0,0,0,0,0,0,0,0,0,0,0,0,0,0,0,0,0,0,0,0,0,0,0,0,0,0,0,0,0,0,0,0,0,0,0,0,0,0,0,0,0,0,0,0,0,0,0,0,0],"trees":[{"base_weights":[3.8642192E-3,1.9800978E1,-5.2335747E1,2.2823702E1,-2.50221E1,-3.277029E1,-6.7939384E1,1.7208569E1,3.3907604E1,-3.604294E1,-3.1985157E0,-2.1445786E1,-4.3396275E1,-5.67444E1,-7.5460464E1,5.558357E-1,1.7286475E-1,8.574628E-1,6.722034E-1,-7.3118645E-1,-1.1926562E0,1.5694126E-1,-3.6071005E-1,-3.2420322E-1,-9.107876E-1,-9.1043276E-1,-1.3323392E0,-1.246087E0,-1.593074E0,-1.6211567E0,-1.8518736E0],"categories":[],"categories_nodes":[],"categories_segments":[],"categories_sizes":[],"default_left":[0,0,0,0,0,0,0,0,0,0,0,0,0,0,0,0,0,0,0,0,0,0,0,0,0,0,0,0,0,0,0],"id":0,"left_children":[1,3,5,7,9,11,13,15,17,19,21,23,25,27,29,-1,-1,-1,-1,-1,-1,-1,-1,-1,-1,-1,-1,-1,-1,-1,-1],"loss_changes":[1.6016129E7,1.5200665E6,1.292824E6,6.533465E5,1.7040922E5,2.2577862E5,1.94342E5,4.6016412E5,5.23365E4,3.1050312E4,2.9551383E4,1.2111816E5,5.4123125E4,3.04525E4,2.8835E4,0E0,0E0,0E0,0E0,0E0,0E0,0E0,0E0,0E0,0E0,0E0,0E0,0E0,0E0,0E0,0E0],"parents":[2147483647,0,0,1,1,2,2,3,3,4,4,5,5,6,6,7,7,8,8,9,9,10,10,11,11,12,12,13,13,14,14],"right_children":[2,4,6,8,10,12,14,16,18,20,22,24,26,28,30,-1,-1,-1,-1,-1,-1,-1,-1,-1,-1,-1,-1,-1,-1,-1,-1],"split_conditions":[5.808793E-1,2.5143218E-1,6.860595E-1,6.5250236E-1,5.6152123E-1,6.211362E-1,7.380952E-1,1.6529113E-1,2.6868045E-1,4.039716E-1,3.226028E-1,2.551998E-1,3.392141E-1,4.039716E-1,8.2539535E-1,5.558357E-1,1.7286475E-1,8.574628E-1,6.722034E-1,-7.3118645E-1,-1.1926562E0,1.5694126E-1,-3.6071005E-1,-3.2420322E-1,-9.107876E-1,-9.1043276E-1,-1.3323392E0,-1.246087E0,-1.593074E0,-1.6211567E0,-1.8518736E0],"split_indices":[24,32,24,56,52,16,34,32,36,30,42,44,44,30,24,0,0,0,0,0,0,0,0,0,0,0,0,0,0,0,0],"split_type":[0,0,0,0,0,0,0,0,0,0,0,0,0,0,0,0,0,0,0,0,0,0,0,0,0,0,0,0,0,0,0],"sum_hessian":[1.5455E4,1.1214E4,4.241E3,1.0506E4,7.08E2,1.883E3,2.358E3,6.975E3,3.531E3,4.7E2,2.38E2,9.13E2,9.7E2,9.51E2,1.407E3,4.117E3,2.858E3,2.167E3,1.364E3,3.66E2,1.04E2,1.32E2,1.06E2,6.45E2,2.68E2,7.53E2,2.17E2,7.65E2,1.86E2,6.32E2,7.75E2],"tree_param":{"num_deleted":"0","num_feature":"58","num_nodes":"31","size_leaf_vector":"1"}},{"base_weights":[-1.0294797E-1,1.925174E1,-5.1262093E1,2.2259132E1,-2.4530231E1,-3.536041E1,-6.969749E1,2.5933603E1,5.8130317E0,-1.4950775E0,-3.431494E1,-2.1805065E1,-4.4825813E1,-6.274309E1,-7.67521E1,8.018205E-1,5.0547683E-1,2.9448062E-1,-3.7611595E-1,1.343327E-1,-2.3573919E-1,-6.827006E-1,-1.1006297E0,-3.444633E-1,-9.432449E-1,-9.358162E-1,-1.3557827E0,-1.2848624E0,-1.5247778E0,-1.6956933E0,-1.8488901E0],"categories":[],"categories_nodes":[],"categories_segments":[],"categories_sizes":[],"default_left":[0,0,0,0,0,0,0,0,0,0,0,0,0,0,0,0,0,0,0,0,0,0,0,0,0,0,0,0,0,0,0],"id":1,"left_children":[1,3,5,7,9,11,13,15,17,19,21,23,25,27,29,-1,-1,-1,-1,-1,-1,-1,-1,-1,-1,-1,-1,-1,-1,-1,-1],"loss_changes":[1.5299101E7,1.4765618E6,1.240801E6,6.337675E5,1.6245656E5,2.9143375E5,9.1491E4,3.05655E5,2.9121838E5,1.3714749E4,3.1013438E4,1.2255944E5,7.9316E4,1.837875E4,4.664E3,0E0,0E0,0E0,0E0,0E0,0E0,0E0,0E0,0E0,0E0,0E0,0E0,0E0,0E0,0E0,0E0],"parents":[2147483647,0,0,1,1,2,2,3,3,4,4,5,5,6,6,7,7,8,8,9,9,10,10,11,11,12,12,13,13,14,14],"right_children":[2,4,6,8,10,12,14,16,18,20,22,24,26,28,30,-1,-1,-1,-1,-1,-1,-1,-1,-1,-1,-1,-1,-1,-1,-1,-1],"split_conditions":[5.808793E-1,2.5143218E-1,6.860119E-1,4.7619048E-1,4.6700206E-1,6.211362E-1,7.861152E-1,2.9252782E-1,1.7705064E-1,3.7619996E-1,3.7099525E-1,2.3529792E-1,3.4941414E-1,7.157738E-1,8.2886904E-1,8.018205E-1,5.0547683E-1,2.9448062E-1,-3.7611595E-1,1.343327E-1,-2.3573919E-1,-6.827006E-1,-1.1006297E0,-3.444633E-1,-9.432449E-1,-9.358162E-1,-1.3557827E0,-1.2848624E0,-1.5247778E0,-1.6956933E0,-1.8488901E0],"split_indices":[24,32,34,34,20,16,22,36,32,24,7,32,42,34,34,0,0,0,0,0,0,0,0,0,0,0,0,0,0,0,0],"split_type":[0,0,0,0,0,0,0,0,0,0,0,0,0,0,0,0,0,0,0,0,0,0,0,0,0,0,0,0,0,0,0],"sum_hessian":[1.5449E4,1.1209E4,4.24E3,1.0489E4,7.2E2,2.278E3,1.962E3,8.573E3,1.916E3,2.15E2,5.05E2,9.38E2,1.34E3,9.93E2,9.69E2,2.768E3,5.805E3,1.46E3,4.56E2,1.17E2,9.8E1,3.71E2,1.34E2,6.87E2,2.51E2,1.013E3,3.27E2,2.96E2,6.97E2,4.51E2,5.18E2],"tree_param":{"num_deleted":"0","num_feature":"58","num_nodes":"31","size_leaf_vector":"1"}},{"base_weights":[-3.3223638E-3,1.7706535E1,-5.313747E1,2.1523193E1,-1.9136408E1,-3.9279606E1,-6.9675514E1,2.5007515E1,1.2197868E0,-3.2552025E1,6.0505853E0,-2.6269041E1,-4.6205776E1,-6.4277954E1,-7.621863E1,4.6909568E-1,7.574465E-1,1.716294E-1,-3.762932E-1,-6.616268E-1,-1.0960195E0,3.083176E-1,-3.2074285E-1,-4.7184202E-1,-1.0262744E0,-9.839088E-1,-1.379524E0,-1.380728E0,-1.5514197E0,-1.6723162E0,-1.8078989E0],"categories":[],"categories_nodes":[],"categories_segments":[],"categories_sizes":[],"default_left":[0,0,0,0,0,0,0,0,0,0,0,0,0,0,0,0,0,0,0,0,0,0,0,0,0,0,0,0,0,0,0],"id":2,"left_children":[1,3,5,7,9,11,13,15,17,19,21,23,25,27,29,-1,-1,-1,-1,-1,-1,-1,-1,-1,-1,-1,-1,-1,-1,-1,-1],"loss_changes":[1.4575122E7,1.633958E6,8.84656E5,7.44688E5,3.6884484E5,1.888355E5,5.7399E4,3.28057E5,1.666104E5,4.0726562E4,5.495464E4,7.736931E4,6.634175E4,8.14575E3,7.8E1,0E0,0E0,0E0,0E0,0E0,0E0,0E0,0E0,0E0,0E0,0E0,0E0,0E0,0E0,0E0,0E0],"parents":[2147483647,0,0,1,1,2,2,3,3,4,4,5,5,6,6,7,7,8,8,9,9,10,10,11,11,12,12,13,13,14,14],"right_children":[2,4,6,8,10,12,14,16,18,20,22,24,26,28,30,-1,-1,-1,-1,-1,-1,-1,-1,-1,-1,-1,-1,-1,-1,-1,-1],"split_conditions":[5.960441E-1,2.3223169E-1,7.0386904E-1,4.955357E-1,5.64877E-1,6.265664E-1,8.2539535E-1,6.5250236E-1,2.0605513E-1,3.822276E-1,3.226028E-1,2.819398E-1,3.6391163E-1,7.091656E-1,8.1994045E-1,4.6909568E-1,7.574465E-1,1.716294E-1,-3.762932E-1,-6.616268E-1,-1.0960195E0,3.083176E-1,-3.2074285E-1,-4.7184202E-1,-1.0262744E0,-9.839088E-1,-1.379524E0,-1.380728E0,-1.5514197E0,-1.6723162E0,-1.8078989E0],"split_indices":[24,30,34,34,52,16,24,56,44,30,42,44,42,20,34,0,0,0,0,0,0,0,0,0,0,0,0,0,0,0,0],"split_type":[0,0,0,0,0,0,0,0,0,0,0,0,0,0,0,0,0,0,0,0,0,0,0,0,0,0,0,0,0,0,0],"sum_hessian":[1.5487E4,1.1616E4,3.871E3,1.0526E4,1.09E3,2.108E3,1.763E3,8.984E3,1.542E3,7.11E2,3.79E2,7.34E2,1.374E3,9.72E2,7.91E2,5.538E3,3.446E3,1.139E3,4.03E2,5.61E2,1.5E2,2.78E2,1.01E2,5.54E2,1.8E2,1.074E3,3E2,3.57E2,6.15E2,2.51E2,5.4E2],"tree_param":{"num_deleted":"0","num_feature":"58","num_nodes":"31","size_leaf_vector":"1"}},{"base_weights":[-3.4740684E-3,1.8363508E1,-4.8764217E1,2.1341377E1,-2.1243168E1,-3.1483906E1,-6.416121E1,2.6265453E1,1.0241689E1,1.178877E0,-3.2011368E1,-1.9868189E1,-4.1251118E1,-5.5309666E1,-7.1643486E1,7.986783E-1,5.228496E-1,4.0243644E-1,-1.9326271E-1,-2.7299374E-1,1.6870616E-1,-6.505794E-1,-1.1145469E0,-2.949007E-1,-8.544204E-1,-8.626911E-1,-1.2437025E0,-1.2134308E0,-1.5190196E0,-1.5480921E0,-1.7357453E0],"categories":[],"categories_nodes":[],"categories_segments":[],"categories_sizes":[],"default_left":[0,0,0,0,0,0,0,0,0,0,0,0,0,0,0,0,0,0,0,0,0,0,0,0,0,0,0,0,0,0,0],"id":3,"left_children":[1,3,5,7,9,11,13,15,17,19,21,23,25,27,29,-1,-1,-1,-1,-1,-1,-1,-1,-1,-1,-1,-1,-1,-1,-1,-1],"loss_changes":[1.3796528E7,1.3202412E6,1.119443E6,5.685875E5,1.8908922E5,2.2472538E5,1.43597E5,2.183005E5,4.2322994E5,2.0229105E4,3.2212E4,1.1002072E5,5.2035125E4,2.765725E4,1.39075E4,0E0,0E0,0E0,0E0,0E0,0E0,0E0,0E0,0E0,0E0,0E0,0E0,0E0,0E0,0E0,0E0],"parents":[2147483647,0,0,1,1,2,2,3,3,4,4,5,5,6,6,7,7,8,8,9,9,10,10,11,11,12,12,13,13,14,14],"right_children":[2,4,6,8,10,12,14,16,18,20,22,24,26,28,30,-1,-1,-1,-1,-1,-1,-1,-1,-1,-1,-1,-1,-1,-1,-1,-1],"split_conditions":[5.808793E-1,2.4295588E-1,6.7173934E-1,4.5289886E-1,4.6822256E-1,6.211362E-1,7.8775835E-1,2.7106518E-1,2.0660232E-1,6.558457E-1,4.039716E-1,2.551998E-1,3.3330706E-1,4.0896893E-1,8.3346474E-1,7.986783E-1,5.228496E-1,4.0243644E-1,-1.9326271E-1,-2.7299374E-1,1.6870616E-1,-6.505794E-1,-1.1145469E0,-2.949007E-1,-8.544204E-1,-8.626911E-1,-1.2437025E0,-1.2134308E0,-1.5190196E0,-1.5480921E0,-1.7357453E0],"split_indices":[24,30,22,22,20,16,36,36,44,28,30,44,42,10,24,0,0,0,0,0,0,0,0,0,0,0,0,0,0,0,0],"split_type":[0,0,0,0,0,0,0,0,0,0,0,0,0,0,0,0,0,0,0,0,0,0,0,0,0,0,0,0,0,0,0],"sum_hessian":[1.5403E4,1.1189E4,4.214E3,1.0407E4,7.82E2,1.987E3,2.227E3,7.208E3,3.199E3,2.54E2,5.28E2,9.09E2,1.078E3,1.024E3,1.203E3,2.247E3,4.961E3,2.313E3,8.86E2,8.1E1,1.73E2,4.26E2,1.02E2,6.41E2,2.68E2,8.16E2,2.62E2,7.98E2,2.26E2,4.88E2,7.15E2],"tree_param":{"num_deleted":"0","num_feature":"58","num_nodes":"31","size_leaf_vector":"1"}},{"base_weights":[4.8189636E-2,1.8034882E1,-4.7732025E1,2.0775568E1,-2.2679506E1,-3.0661247E1,-6.274736E1,2.4227245E1,5.301381E0,-3.2888824E1,-2.464995E0,-2.4784218E1,-4.8937256E1,-5.4188595E1,-6.9960556E1,7.4160427E-1,4.6658885E-1,2.845898E-1,-3.225943E-1,-6.67526E-1,-1.0994906E0,1.49476E-1,-3.1781298E-1,-3.315438E-2,-6.7104083E-1,-1.0090952E0,-1.3213937E0,-1.199946E0,-1.539317E0,-1.5340816E0,-1.7121363E0],"categories":[],"categories_nodes":[],"categories_segments":[],"categories_sizes":[],"default_left":[0,0,0,0,0,0,0,0,0,0,0,0,0,0,0,0,0,0,0,0,0,0,0,0,0,0,0,0,0,0,0],"id":4,"left_children":[1,3,5,7,9,11,13,15,17,19,21,23,25,27,29,-1,-1,-1,-1,-1,-1,-1,-1,-1,-1,-1,-1,-1,-1,-1,-1],"loss_changes":[1.3289027E7,1.254021E6,1.082068E6,5.62085E5,1.4623978E5,2.1156375E5,1.35053E5,2.733005E5,2.5760705E5,2.6678375E4,2.4037533E4,1.4578894E5,1.849625E4,2.72165E4,1.3056E4,0E0,0E0,0E0,0E0,0E0,0E0,0E0,0E0,0E0,0E0,0E0,0E0,0E0,0E0,0E0,0E0],"parents":[2147483647,0,0,1,1,2,2,3,3,4,4,5,5,6,6,7,7,8,8,9,9,10,10,11,11,12,12,13,13,14,14],"right_children":[2,4,6,8,10,12,14,16,18,20,22,24,26,28,30,-1,-1,-1,-1,-1,-1,-1,-1,-1,-1,-1,-1,-1,-1,-1,-1],"split_conditions":[5.808793E-1,2.5143218E-1,6.6071427E-1,4.7619048E-1,5.6152123E-1,3.1278774E-1,7.5744045E-1,3.0047694E-1,2.0605513E-1,4.039716E-1,3.226028E-1,5.651629E-1,3.9377752E-1,4.3478838E-1,8.533831E-1,7.4160427E-1,4.6658885E-1,2.845898E-1,-3.225943E-1,-6.67526E-1,-1.0994906E0,1.49476E-1,-3.1781298E-1,-3.315438E-2,-6.7104083E-1,-1.0090952E0,-1.3213937E0,-1.199946E0,-1.539317E0,-1.5340816E0,-1.7121363E0],"split_indices":[24,32,34,34,52,42,34,36,44,30,42,16,30,30,24,0,0,0,0,0,0,0,0,0,0,0,0,0,0,0,0],"split_type":[0,0,0,0,0,0,0,0,0,0,0,0,0,0,0,0,0,0,0,0,0,0,0,0,0,0,0,0,0,0,0],"sum_hessian":[1.5461E4,1.1233E4,4.228E3,1.0525E4,7.08E2,1.98E3,2.248E3,8.605E3,1.92E3,4.7E2,2.38E2,1.5E3,4.8E2,1.032E3,1.216E3,2.973E3,5.632E3,1.409E3,5.11E2,3.69E2,1.01E2,1.33E2,1.05E2,2.27E2,1.273E3,2.91E2,1.89E2,8.65E2,1.67E2,6.25E2,5.91E2],"tree_param":{"num_deleted":"0","num_feature":"58","num_nodes":"31","size_leaf_vector":"1"}},{"base_weights":[1.6396374E-2,1.747202E1,-4.6509937E1,2.051853E1,-1.9050106E1,-3.0452614E1,-6.1797398E1,2.7147087E1,1.2837514E1,-3.1126213E1,2.287322E0,-1.9257069E1,-3.963691E1,-5.344383E1,-6.8409615E1,7.628949E-1,5.385402E-1,4.7370413E-1,-2.3700649E-2,-6.4157367E-1,-1.0626049E0,2.3320462E-1,-3.095434E-1,-2.981277E-1,-8.5048556E-1,-8.389006E-1,-1.2231814E0,-1.1753645E0,-1.4574057E0,-1.4795358E0,-1.6562973E0],"categories":[],"categories_nodes":[],"categories_segments":[],"categories_sizes":[],"default_left":[0,0,0,0,0,0,0,0,0,0,0,0,0,0,0,0,0,0,0,0,0,0,0,0,0,0,0,0,0,0,0],"id":5,"left_children":[1,3,5,7,9,11,13,15,17,19,21,23,25,27,29,-1,-1,-1,-1,-1,-1,-1,-1,-1,-1,-1,-1,-1,-1,-1,-1],"loss_changes":[1.2598012E7,1.2554598E6,1.036972E6,5.297685E5,2.2398906E5,2.116695E5,1.160395E5,1.2532625E5,5.0792462E5,2.6916875E4,3.841942E4,1.0355428E5,4.94655E4,2.169775E4,1.2234E4,0E0,0E0,0E0,0E0,0E0,0E0,0E0,0E0,0E0,0E0,0E0,0E0,0E0,0E0,0E0,0E0],"parents":[2147483647,0,0,1,1,2,2,3,3,4,4,5,5,6,6,7,7,8,8,9,9,10,10,11,11,12,12,13,13,14,14],"right_children":[2,4,6,8,10,12,14,16,18,20,22,24,26,28,30,-1,-1,-1,-1,-1,-1,-1,-1,-1,-1,-1,-1,-1,-1,-1,-1],"split_conditions":[5.808793E-1,2.4243994E-1,6.978389E-1,3.9285713E-1,5.64877E-1,6.211362E-1,7.8775835E-1,2.7106518E-1,1.633492E-1,4.039716E-1,3.226028E-1,2.3529792E-1,3.4941414E-1,4.0896893E-1,8.3346474E-1,7.628949E-1,5.385402E-1,4.7370413E-1,-2.3700649E-2,-6.4157367E-1,-1.0626049E0,2.3320462E-1,-3.095434E-1,-2.981277E-1,-8.5048556E-1,-8.389006E-1,-1.2231814E0,-1.1753645E0,-1.4574057E0,-1.4795358E0,-1.6562973E0],"split_indices":[24,32,24,34,52,16,36,36,32,30,42,32,42,10,24,0,0,0,0,0,0,0,0,0,0,0,0,0,0,0,0],"split_type":[0,0,0,0,0,0,0,0,0,0,0,0,0,0,0,0,0,0,0,0,0,0,0,0,0,0,0,0,0,0,0],"sum_hessian":[1.551E4,1.1279E4,4.231E3,1.0411E4,8.68E2,2.065E3,2.166E3,5.587E3,4.824E3,5.54E2,3.14E2,9.32E2,1.133E3,9.61E2,1.205E3,2.259E3,3.328E3,3.116E3,1.708E3,4.51E2,1.03E2,2.1E2,1.04E2,6.83E2,2.49E2,9E2,2.33E2,7.49E2,2.12E2,4.88E2,7.17E2],"tree_param":{"num_deleted":"0","num_feature":"58","num_nodes":"31","size_leaf_vector":"1"}},{"base_weights":[5.696954E-2,1.6785465E1,-4.6315838E1,1.954053E1,-2.2327225E1,-5.891166E1,-2.8459929E1,2.5348065E0,2.2870491E1,-3.142434E1,-3.1761334E0,-5.1377304E1,-6.727699E1,-1.8605476E1,-3.731141E1,2.2293948E-1,-3.613542E-1,6.98098E-1,4.3202153E-1,-6.350562E-1,-9.92002E-1,1.251488E-1,-3.0548367E-1,-1.031931E0,-1.2982769E0,-1.6249048E0,-1.456934E0,-2.5251153E-1,-7.2062165E-1,-6.664558E-1,-9.613697E-1],"categories":[],"categories_nodes":[],"categories_segments":[],"categories_sizes":[],"default_left":[0,0,0,0,0,0,0,0,0,0,0,0,0,0,0,0,0,0,0,0,0,0,0,0,0,0,0,0,0,0,0],"id":6,"left_children":[1,3,5,7,9,11,13,15,17,19,21,23,25,27,29,-1,-1,-1,-1,-1,-1,-1,-1,-1,-1,-1,-1,-1,-1,-1,-1],"loss_changes":[1.1991504E7,1.2245675E6,9.20003E5,6.0093925E5,1.302165E5,1.479355E5,1.4732912E5,2.2330347E5,2.71651E5,2.2059781E4,2.0821676E4,3.774925E4,9.7425E3,7.714122E4,3.0593375E4,0E0,0E0,0E0,0E0,0E0,0E0,0E0,0E0,0E0,0E0,0E0,0E0,0E0,0E0,0E0,0E0],"parents":[2147483647,0,0,1,1,2,2,3,3,4,4,5,5,6,6,7,7,8,8,9,9,10,10,11,11,12,12,13,13,14,14],"right_children":[2,4,6,8,10,12,14,16,18,20,22,24,26,28,30,-1,-1,-1,-1,-1,-1,-1,-1,-1,-1,-1,-1,-1,-1,-1,-1],"split_conditions":[5.6345934E-1,2.5143218E-1,3.334137E-1,4.720358E-1,5.6152123E-1,7.6716954E-1,6.043223E-1,2.0830402E-1,3.0985916E-1,3.7099525E-1,3.226028E-1,7.017544E-1,2.1822034E-1,2.1630137E-1,6.211362E-1,2.2293948E-1,-3.613542E-1,6.98098E-1,4.3202153E-1,-6.350562E-1,-9.92002E-1,1.251488E-1,-3.0548367E-1,-1.031931E0,-1.2982769E0,-1.6249048E0,-1.456934E0,-2.5251153E-1,-7.2062165E-1,-6.664558E-1,-9.613697E-1],"split_indices":[22,32,56,52,52,22,20,44,48,7,42,16,50,44,16,0,0,0,0,0,0,0,0,0,0,0,0,0,0,0,0],"split_type":[0,0,0,0,0,0,0,0,0,0,0,0,0,0,0,0,0,0,0,0,0,0,0,0,0,0,0,0,0,0,0],"sum_hessian":[1.5456E4,1.1359E4,4.097E3,1.0612E4,7.47E2,2.401E3,1.696E3,1.738E3,8.874E3,5.06E2,2.41E2,1.267E3,1.134E3,8.04E2,8.92E2,1.25E3,4.88E2,3.273E3,5.601E3,3.76E2,1.3E2,1.3E2,1.11E2,5.14E2,7.53E2,6.85E2,4.49E2,4.98E2,3.06E2,2.94E2,5.98E2],"tree_param":{"num_deleted":"0","num_feature":"58","num_nodes":"31","size_leaf_vector":"1"}},{"base_weights":[-5.8434986E-2,1.667831E1,-4.4665936E1,1.9543293E1,-1.7542624E1,-2.861638E1,-5.8584675E1,8.409955E0,2.374508E1,-2.9619741E1,2.6644163E0,-2.3092522E1,-4.604198E1,-4.9111446E1,-6.416183E1,3.7117207E-1,-1.15224764E-1,7.304892E-1,4.7421366E-1,-5.924186E-1,-9.70751E-1,2.2761379E-1,-2.8457695E-1,-2.8168887E-2,-6.254945E-1,-9.5097864E-1,-1.2625273E0,-1.0890356E0,-1.4244776E0,-1.3870997E0,-1.581592E0],"categories":[],"categories_nodes":[],"categories_segments":[],"categories_sizes":[],"default_left":[0,0,0,0,0,0,0,0,0,0,0,0,0,0,0,0,0,0,0,0,0,0,0,0,0,0,0,0,0,0,0],"id":7,"left_children":[1,3,5,7,9,11,13,15,17,19,21,23,25,27,29,-1,-1,-1,-1,-1,-1,-1,-1,-1,-1,-1,-1,-1,-1,-1,-1],"loss_changes":[1.1542194E7,1.1025345E6,9.40581E5,4.8509525E5,2.1215212E5,1.8769588E5,1.16147E5,2.892795E5,1.91746E5,2.6035062E4,3.495864E4,1.2676581E5,1.7675062E4,1.92815E4,2.08405E4,0E0,0E0,0E0,0E0,0E0,0E0,0E0,0E0,0E0,0E0,0E0,0E0,0E0,0E0,0E0,0E0],"parents":[2147483647,0,0,1,1,2,2,3,3,4,4,5,5,6,6,7,7,8,8,9,9,10,10,11,11,12,12,13,13,14,14],"right_children":[2,4,6,8,10,12,14,16,18,20,22,24,26,28,30,-1,-1,-1,-1,-1,-1,-1,-1,-1,-1,-1,-1,-1,-1,-1,-1],"split_conditions":[5.808793E-1,2.4243994E-1,6.6071427E-1,5.2754235E-1,5.64877E-1,3.1278774E-1,7.380952E-1,1.6287988E-1,2.7106518E-1,3.822276E-1,3.226028E-1,5.651629E-1,4.039716E-1,4.3922424E-1,8.3346474E-1,3.7117207E-1,-1.15224764E-1,7.304892E-1,4.7421366E-1,-5.924186E-1,-9.70751E-1,2.2761379E-1,-2.8457695E-1,-2.8168887E-2,-6.254945E-1,-9.5097864E-1,-1.2625273E0,-1.0890356E0,-1.4244776E0,-1.3870997E0,-1.581592E0],"split_indices":[24,32,34,50,52,42,34,32,36,30,42,16,30,42,24,0,0,0,0,0,0,0,0,0,0,0,0,0,0,0,0],"split_type":[0,0,0,0,0,0,0,0,0,0,0,0,0,0,0,0,0,0,0,0,0,0,0,0,0,0,0,0,0,0,0],"sum_hessian":[1.5458E4,1.1241E4,4.217E3,1.0373E4,8.68E2,1.96E3,2.257E3,2.843E3,7.53E3,5.43E2,3.25E2,1.49E3,4.7E2,8.4E2,1.417E3,1.813E3,1.03E3,2.239E3,5.291E3,4.1E2,1.33E2,2.2E2,1.05E2,2.25E2,1.265E3,2.98E2,1.72E2,7.2E2,1.2E2,6.93E2,7.24E2],"tree_param":{"num_deleted":"0","num_feature":"58","num_nodes":"31","size_leaf_vector":"1"}},{"base_weights":[9.079601E-5,1.6400494E1,-4.3369778E1,1.8955475E1,-2.0952059E1,-2.771477E1,-5.728384E1,2.1701475E1,1.0516715E0,-3.0124304E1,-2.6348042E0,-1.8140038E1,-3.6508675E1,-4.9155945E1,-6.3435238E1,4.2596242E-1,6.945516E-1,1.6688517E-1,-4.1782627E-1,-6.112061E-1,-9.6294534E-1,1.3481803E-1,-2.9561317E-1,-2.9351684E-1,-8.336815E-1,-5.509076E-1,-9.3618864E-1,-1.0795003E0,-1.3981726E0,-1.387615E0,-1.5589461E0],"categories":[],"categories_nodes":[],"categories_segments":[],"categories_sizes":[],"default_left":[0,0,0,0,0,0,0,0,0,0,0,0,0,0,0,0,0,0,0,0,0,0,0,0,0,0,0,0,0,0,0],"id":8,"left_children":[1,3,5,7,9,11,13,15,17,19,21,23,25,27,29,-1,-1,-1,-1,-1,-1,-1,-1,-1,-1,-1,-1,-1,-1,-1,-1],"loss_changes":[1.1001418E7,1.0714652E6,9.228615E5,5.16443E5,1.2072006E5,1.67652E5,1.09177E5,2.49747E5,1.64033E5,1.9461156E4,2.0674842E4,9.3186E4,5.0422125E4,2.53035E4,1.33675E4,0E0,0E0,0E0,0E0,0E0,0E0,0E0,0E0,0E0,0E0,0E0,0E0,0E0,0E0,0E0,0E0],"parents":[2147483647,0,0,1,1,2,2,3,3,4,4,5,5,6,6,7,7,8,8,9,9,10,10,11,11,12,12,13,13,14,14],"right_children":[2,4,6,8,10,12,14,16,18,20,22,24,26,28,30,-1,-1,-1,-1,-1,-1,-1,-1,-1,-1,-1,-1,-1,-1,-1,-1],"split_conditions":[5.591615E-1,2.5143218E-1,6.7173934E-1,4.955357E-1,5.6152123E-1,5.883269E-1,7.514881E-1,7.22183E-1,2.0886323E-1,3.9377752E-1,3.226028E-1,2.4760439E-1,5.658773E-1,4.234497E-1,8.1994045E-1,4.2596242E-1,6.945516E-1,1.6688517E-1,-4.1782627E-1,-6.112061E-1,-9.6294534E-1,1.3481803E-1,-2.9561317E-1,-2.9351684E-1,-8.336815E-1,-5.509076E-1,-9.3618864E-1,-1.0795003E0,-1.3981726E0,-1.387615E0,-1.5589461E0],"split_indices":[22,32,22,34,52,14,34,28,44,30,42,30,18,7,34,0,0,0,0,0,0,0,0,0,0,0,0,0,0,0,0],"split_type":[0,0,0,0,0,0,0,0,0,0,0,0,0,0,0,0,0,0,0,0,0,0,0,0,0,0,0,0,0,0,0],"sum_hessian":[1.5465E4,1.1222E4,4.243E3,1.0504E4,7.18E2,1.998E3,2.245E3,9.107E3,1.397E3,4.78E2,2.4E2,9.58E2,1.04E3,9.71E2,1.274E3,6.493E3,2.614E3,1.057E3,3.4E2,3.62E2,1.16E2,1.31E2,1.09E2,7.34E2,2.24E2,2.44E2,7.96E2,7.92E2,1.79E2,6.65E2,6.09E2],"tree_param":{"num_deleted":"0","num_feature":"58","num_nodes":"31","size_leaf_vector":"1"}},{"base_weights":[6.939837E-2,1.5031098E1,-4.5130745E1,1.8283768E1,-1.6382421E1,-3.2310715E1,-5.788744E1,2.0890812E1,-2.317192E0,6.2875032E0,-2.7189053E1,-2.7022085E1,-4.5115715E1,-5.2197098E1,-6.3720955E1,3.881125E-1,6.5017766E-1,1.9678837E-1,-2.5020018E-1,3.0965924E-1,-1.2765706E-1,-4.5040148E-1,-7.744342E-1,-4.5301858E-1,-8.197311E-1,-9.1788334E-1,-1.2010952E0,-1.0738006E0,-1.2683245E0,-1.4060805E0,-1.5378896E0],"categories":[],"categories_nodes":[],"categories_segments":[],"categories_sizes":[],"default_left":[0,0,0,0,0,0,0,0,0,0,0,0,0,0,0,0,0,0,0,0,0,0,0,0,0,0,0,0,0,0,0],"id":9,"left_children":[1,3,5,7,9,11,13,15,17,19,21,23,25,27,29,-1,-1,-1,-1,-1,-1,-1,-1,-1,-1,-1,-1,-1,-1,-1,-1],"loss_changes":[1.0461239E7,1.1878098E6,6.272725E5,5.6569675E5,2.674502E5,1.28872625E5,6.064E4,2.770905E5,1.0851442E5,2.9503988E4,3.4999438E4,8.42525E4,1.8650125E4,1.194625E4,3.57975E3,0E0,0E0,0E0,0E0,0E0,0E0,0E0,0E0,0E0,0E0,0E0,0E0,0E0,0E0,0E0,0E0],"parents":[2147483647,0,0,1,1,2,2,3,3,4,4,5,5,6,6,7,7,8,8,9,9,10,10,11,11,12,12,13,13,14,14],"right_children":[2,4,6,8,10,12,14,16,18,20,22,24,26,28,30,-1,-1,-1,-1,-1,-1,-1,-1,-1,-1,-1,-1,-1,-1,-1,-1],"split_conditions":[5.960441E-1,2.3223169E-1,6.860119E-1,5.0744045E-1,4.621201E-1,2.764027E-1,7.861152E-1,6.5250236E-1,5.4371446E-1,3.6986968E-1,5.3496265E-1,6.1160713E-1,3.7099525E-1,7.157738E-1,8.2886904E-1,3.881125E-1,6.5017766E-1,1.9678837E-1,-2.5020018E-1,3.0965924E-1,-1.2765706E-1,-4.5040148E-1,-7.744342E-1,-4.5301858E-1,-8.197311E-1,-9.1788334E-1,-1.2010952E0,-1.0738006E0,-1.2683245E0,-1.4060805E0,-1.5378896E0],"split_indices":[24,30,34,34,20,30,22,56,20,24,20,34,7,34,34,0,0,0,0,0,0,0,0,0,0,0,0,0,0,0,0],"split_type":[0,0,0,0,0,0,0,0,0,0,0,0,0,0,0,0,0,0,0,0,0,0,0,0,0,0,0,0,0,0,0],"sum_hessian":[1.5467E4,1.1621E4,3.846E3,1.0531E4,1.09E3,1.92E3,1.926E3,9.348E3,1.183E3,3.52E2,7.38E2,1.361E3,5.59E2,9.8E2,9.46E2,5.918E3,3.43E3,5.2E2,6.63E2,2.2E2,1.32E2,3.3E2,4.08E2,7.19E2,6.42E2,3.1E2,2.49E2,2.99E2,6.81E2,4.46E2,5E2],"tree_param":{"num_deleted":"0","num_feature":"58","num_nodes":"31","size_leaf_vector":"1"}},{"base_weights":[-5.737456E-2,1.4663075E1,-4.4104656E1,1.803192E1,-1.4727687E1,-3.136629E1,-5.6657E1,2.160439E0,2.130431E1,-2.7097538E1,6.323186E0,-2.626326E1,-4.397025E1,-5.1038837E1,-6.233289E1,1.865568E-1,-2.573725E-1,4.1844085E-1,6.6654265E-1,-5.555966E-1,-9.203847E-1,3.3328533E-1,-1.9108202E-1,-4.3609628E-1,-8.041027E-1,-8.9325094E-1,-1.1731987E0,-1.0498259E0,-1.2407477E0,-1.4985472E0,-1.3710017E0],"categories":[],"categories_nodes":[],"categories_segments":[],"categories_sizes":[],"default_left":[0,0,0,0,0,0,0,0,0,0,0,0,0,0,0,0,0,0,0,0,0,0,0,0,0,0,0,0,0,0,0],"id":10,"left_children":[1,3,5,7,9,11,13,15,17,19,21,23,25,27,29,-1,-1,-1,-1,-1,-1,-1,-1,-1,-1,-1,-1,-1,-1,-1,-1],"loss_changes":[1.0022901E7,1.1474288E6,6.173415E5,5.3984625E5,3.1056366E5,1.2259375E5,5.89685E4,1.3888769E5,2.0838525E5,2.869675E4,5.1959484E4,8.5450375E4,1.80115E4,1.163175E4,3.28725E3,0E0,0E0,0E0,0E0,0E0,0E0,0E0,0E0,0E0,0E0,0E0,0E0,0E0,0E0,0E0,0E0],"parents":[2147483647,0,0,1,1,2,2,3,3,4,4,5,5,6,6,7,7,8,8,9,9,10,10,11,11,12,12,13,13,14,14],"right_children":[2,4,6,8,10,12,14,16,18,20,22,24,26,28,30,-1,-1,-1,-1,-1,-1,-1,-1,-1,-1,-1,-1,-1,-1,-1,-1],"split_conditions":[5.960441E-1,2.2878608E-1,6.860119E-1,4.720358E-1,5.6152123E-1,2.764027E-1,7.861152E-1,1.6838607E-1,7.17243E-1,3.822276E-1,2.6426154E-1,6.1160713E-1,3.7099525E-1,7.157738E-1,1.5612882E-1,1.865568E-1,-2.573725E-1,4.1844085E-1,6.6654265E-1,-5.555966E-1,-9.203847E-1,3.3328533E-1,-1.9108202E-1,-4.3609628E-1,-8.041027E-1,-8.9325094E-1,-1.1731987E0,-1.0498259E0,-1.2407477E0,-1.4985472E0,-1.3710017E0],"split_indices":[24,30,34,52,52,30,22,30,28,30,30,34,7,34,56,0,0,0,0,0,0,0,0,0,0,0,0,0,0,0,0],"split_type":[0,0,0,0,0,0,0,0,0,0,0,0,0,0,0,0,0,0,0,0,0,0,0,0,0,0,0,0,0,0,0],"sum_hessian":[1.5456E4,1.1585E4,3.871E3,1.0394E4,1.191E3,1.923E3,1.948E3,1.777E3,8.617E3,7.5E2,4.41E2,1.371E3,5.52E2,9.84E2,9.64E2,1.231E3,5.46E2,5.998E3,2.619E3,6.03E2,1.47E2,2.84E2,1.57E2,7.29E2,6.42E2,3.07E2,2.45E2,3.02E2,6.82E2,5.49E2,4.15E2],"tree_param":{"num_deleted":"0","num_feature":"58","num_nodes":"31","size_leaf_vector":"1"}},{"base_weights":[2.507164E-2,1.5275852E1,-4.0529213E1,1.808163E1,-1.3926621E1,-2.6855099E1,-5.418412E1,2.1053791E1,4.7996073E0,-2.6082253E1,5.1344748E0,-1.6699604E1,-3.48911E1,-4.7864964E1,-6.0200672E1,3.9665347E-1,6.2013483E-1,2.3923978E-1,-2.869012E-1,-5.221595E-1,-8.939547E-1,3.1516853E-1,-1.4043209E-1,-2.4190538E-1,-7.290531E-1,-7.2257215E-1,-1.0791E0,-1.0581211E0,-1.3361461E0,-1.3166548E0,-1.4551631E0],"categories":[],"categories_nodes":[],"categories_segments":[],"categories_sizes":[],"default_left":[0,0,0,0,0,0,0,0,0,0,0,0,0,0,0,0,0,0,0,0,0,0,0,0,0,0,0,0,0,0,0],"id":11,"left_children":[1,3,5,7,9,11,13,15,17,19,21,23,25,27,29,-1,-1,-1,-1,-1,-1,-1,-1,-1,-1,-1,-1,-1,-1,-1,-1],"loss_changes":[9.548164E6,9.1948825E5,7.86311E5,4.039785E5,2.2812634E5,1.716135E5,7.734E4,1.87435E5,1.7768392E5,2.5824844E4,3.6439754E4,8.596928E4,4.96325E4,1.983675E4,5.85425E3,0E0,0E0,0E0,0E0,0E0,0E0,0E0,0E0,0E0,0E0,0E0,0E0,0E0,0E0,0E0,0E0],"parents":[2147483647,0,0,1,1,2,2,3,3,4,4,5,5,6,6,7,7,8,8,9,9,10,10,11,11,12,12,13,13,14,14],"right_children":[2,4,6,8,10,12,14,16,18,20,22,24,26,28,30,-1,-1,-1,-1,-1,-1,-1,-1,-1,-1,-1,-1,-1,-1,-1,-1],"split_conditions":[5.808793E-1,2.3223169E-1,6.7113096E-1,4.7619048E-1,5.64877E-1,6.211362E-1,8.0047697E-1,6.5250236E-1,2.0605513E-1,3.822276E-1,2.6038778E-1,2.551998E-1,3.4941414E-1,4.3478838E-1,8.1994045E-1,3.9665347E-1,6.2013483E-1,2.3923978E-1,-2.869012E-1,-5.221595E-1,-8.939547E-1,3.1516853E-1,-1.4043209E-1,-2.4190538E-1,-7.290531E-1,-7.2257215E-1,-1.0791E0,-1.0581211E0,-1.3361461E0,-1.3166548E0,-1.4551631E0],"split_indices":[24,30,34,34,52,16,36,56,44,30,30,44,42,30,34,0,0,0,0,0,0,0,0,0,0,0,0,0,0,0,0],"split_type":[0,0,0,0,0,0,0,0,0,0,0,0,0,0,0,0,0,0,0,0,0,0,0,0,0,0,0,0,0,0,0],"sum_hessian":[1.5436E4,1.1218E4,4.218E3,1.0235E4,9.83E2,2.109E3,2.109E3,8.363E3,1.872E3,6E2,3.83E2,9.33E2,1.176E3,1.033E3,1.076E3,4.943E3,3.42E3,1.417E3,4.55E2,4.69E2,1.31E2,2.18E2,1.65E2,6.56E2,2.77E2,8.94E2,2.82E2,8.46E2,1.87E2,4.72E2,6.04E2],"tree_param":{"num_deleted":"0","num_feature":"58","num_nodes":"31","size_leaf_vector":"1"}},{"base_weights":[3.6709595E-2,1.4682816E1,-4.035763E1,1.7064672E1,-1.9560946E1,-2.6149256E1,-5.225506E1,1.9735548E1,4.9475217E-1,-9.0312815E-1,-2.707911E1,-2.1118029E1,-4.09861E1,-4.527383E1,-5.816434E1,6.112019E-1,3.715236E-1,1.1070883E-1,-4.7444767E-1,1.5950294E-1,-1.4679405E-1,-5.3884923E-1,-8.372254E-1,-6.51101E-2,-5.793506E-1,-8.274353E-1,-1.1059332E0,-1.0044034E0,-1.2839785E0,-1.2728436E0,-1.4232415E0],"categories":[],"categories_nodes":[],"categories_segments":[],"categories_sizes":[],"default_left":[0,0,0,0,0,0,0,0,0,0,0,0,0,0,0,0,0,0,0,0,0,0,0,0,0,0,0,0,0,0,0],"id":12,"left_children":[1,3,5,7,9,11,13,15,17,19,21,23,25,27,29,-1,-1,-1,-1,-1,-1,-1,-1,-1,-1,-1,-1,-1,-1,-1,-1],"loss_changes":[9.142301E6,9.253485E5,6.937385E5,4.692825E5,1.0349666E5,1.3917312E5,8.96525E4,2.2414975E5,1.3225005E5,9.043042E3,1.7390719E4,9.937894E4,1.51581875E4,1.79085E4,9.33825E3,0E0,0E0,0E0,0E0,0E0,0E0,0E0,0E0,0E0,0E0,0E0,0E0,0E0,0E0,0E0,0E0],"parents":[2147483647,0,0,1,1,2,2,3,3,4,4,5,5,6,6,7,7,8,8,9,9,10,10,11,11,12,12,13,13,14,14],"right_children":[2,4,6,8,10,12,14,16,18,20,22,24,26,28,30,-1,-1,-1,-1,-1,-1,-1,-1,-1,-1,-1,-1,-1,-1,-1,-1],"split_conditions":[5.6345934E-1,2.5143218E-1,6.6071427E-1,4.955357E-1,4.6822256E-1,2.827784E-1,7.8775835E-1,3.0985916E-1,1.9491644E-1,3.030763E-1,3.6215562E-1,5.651629E-1,3.7099525E-1,4.234497E-1,8.533831E-1,6.112019E-1,3.715236E-1,1.1070883E-1,-4.7444767E-1,1.5950294E-1,-1.4679405E-1,-5.3884923E-1,-8.372254E-1,-6.51101E-2,-5.793506E-1,-8.274353E-1,-1.1059332E0,-1.0044034E0,-1.2839785E0,-1.2728436E0,-1.4232415E0],"split_indices":[22,32,34,34,20,7,36,48,32,41,7,16,7,7,24,0,0,0,0,0,0,0,0,0,0,0,0,0,0,0,0],"split_type":[0,0,0,0,0,0,0,0,0,0,0,0,0,0,0,0,0,0,0,0,0,0,0,0,0,0,0,0,0,0,0],"sum_hessian":[1.5451E4,1.134E4,4.111E3,1.0603E4,7.37E2,1.875E3,2.236E3,9.131E3,1.472E3,2.12E2,5.25E2,1.402E3,4.73E2,1.029E3,1.207E3,3.275E3,5.856E3,1.223E3,2.49E2,8.7E1,1.25E2,3.71E2,1.54E2,2.45E2,1.157E3,2.68E2,2.05E2,8.67E2,1.62E2,6.09E2,5.98E2],"tree_param":{"num_deleted":"0","num_feature":"58","num_nodes":"31","size_leaf_vector":"1"}},{"base_weights":[-5.8920745E-2,1.3736326E1,-4.122042E1,1.6720802E1,-1.5194338E1,-5.1508724E1,-2.7937897E1,1.8689197E0,1.9790796E1,6.2076783E0,-2.509393E1,-4.502487E1,-5.7272465E1,-2.1975733E1,-3.5521336E1,1.7396623E-1,-3.389802E-1,6.0290754E-1,3.7627438E-1,2.9737422E-1,-1.2608884E-1,-4.353118E-1,-7.335072E-1,-8.137017E-1,-1.0842155E0,-1.3733248E0,-1.21641E0,-3.8706335E-1,-6.9814456E-1,-8.976712E-1,-7.120255E-1],"categories":[],"categories_nodes":[],"categories_segments":[],"categories_sizes":[],"default_left":[0,0,0,0,0,0,0,0,0,0,0,0,0,0,0,0,0,0,0,0,0,0,0,0,0,0,0,0,0,0,0],"id":13,"left_children":[1,3,5,7,9,11,13,15,17,19,21,23,25,27,29,-1,-1,-1,-1,-1,-1,-1,-1,-1,-1,-1,-1,-1,-1,-1,-1],"loss_changes":[8.767908E6,9.9880925E5,5.28234E5,4.7798325E5,2.294004E5,7.90035E4,7.5811375E4,1.670876E5,1.9183575E5,2.651102E4,3.0002094E4,1.6195625E4,7.761E3,4.0361438E4,1.0254625E4,0E0,0E0,0E0,0E0,0E0,0E0,0E0,0E0,0E0,0E0,0E0,0E0,0E0,0E0,0E0,0E0],"parents":[2147483647,0,0,1,1,2,2,3,3,4,4,5,5,6,6,7,7,8,8,9,9,10,10,11,11,12,12,13,13,14,14],"right_children":[2,4,6,8,10,12,14,16,18,20,22,24,26,28,30,-1,-1,-1,-1,-1,-1,-1,-1,-1,-1,-1,-1,-1,-1,-1,-1],"split_conditions":[5.960441E-1,2.3223169E-1,3.1454805E-1,4.720358E-1,4.621201E-1,7.6716954E-1,6.2831545E-1,1.7705064E-1,3.0985916E-1,3.6986968E-1,5.4371446E-1,6.495044E-1,2.3728813E-1,6.023346E-1,4.114035E-1,1.7396623E-1,-3.389802E-1,6.0290754E-1,3.7627438E-1,2.9737422E-1,-1.2608884E-1,-4.353118E-1,-7.335072E-1,-8.137017E-1,-1.0842155E0,-1.3733248E0,-1.21641E0,-3.8706335E-1,-6.9814456E-1,-8.976712E-1,-7.120255E-1],"split_indices":[24,30,56,52,20,22,20,32,48,24,20,22,50,14,26,0,0,0,0,0,0,0,0,0,0,0,0,0,0,0,0],"split_type":[0,0,0,0,0,0,0,0,0,0,0,0,0,0,0,0,0,0,0,0,0,0,0,0,0,0,0,0,0,0,0],"sum_hessian":[1.5439E4,1.1564E4,3.875E3,1.0483E4,1.081E3,2.182E3,1.693E3,1.796E3,8.687E3,3.42E2,7.39E2,1.031E3,1.151E3,9.5E2,7.43E2,1.339E3,4.57E2,3.162E3,5.525E3,2.18E2,1.24E2,3.78E2,3.61E2,1.57E2,8.74E2,8.09E2,3.42E2,5.78E2,3.72E2,4.42E2,3.01E2],"tree_param":{"num_deleted":"0","num_feature":"58","num_nodes":"31","size_leaf_vector":"1"}},{"base_weights":[4.9505506E-2,1.3440909E1,-4.025335E1,1.645451E1,-1.3522447E1,-2.97586E1,-5.2815685E1,1.8760733E1,-2.0593762E0,7.5204124E0,-2.418953E1,-2.1875425E1,-3.669682E1,-4.760602E1,-5.6622627E1,3.4878197E-1,5.8223754E-1,-4.6533582E-1,6.1027087E-2,3.297943E-1,-1.0579827E-1,-4.147989E-1,-7.0725375E-1,-4.3200874E-1,-7.6382804E-1,-7.847312E-1,-1.0911127E0,-1.0726006E0,-1.2524463E0,-1.3453581E0,-1.2028536E0],"categories":[],"categories_nodes":[],"categories_segments":[],"categories_sizes":[],"default_left":[0,0,0,0,0,0,0,0,0,0,0,0,0,0,0,0,0,0,0,0,0,0,0,0,0,0,0,0,0,0,0],"id":14,"left_children":[1,3,5,7,9,11,13,15,17,19,21,23,25,27,29,-1,-1,-1,-1,-1,-1,-1,-1,-1,-1,-1,-1,-1,-1,-1,-1],"loss_changes":[8.33585E6,9.422325E5,5.0627E5,4.452845E5,2.6190914E5,1.14112E5,3.20515E4,2.1857625E5,9.774344E4,3.190552E4,3.0245375E4,3.47695E4,3.13635E4,3.91975E3,3.70575E3,0E0,0E0,0E0,0E0,0E0,0E0,0E0,0E0,0E0,0E0,0E0,0E0,0E0,0E0,0E0,0E0],"parents":[2147483647,0,0,1,1,2,2,3,3,4,4,5,5,6,6,7,7,8,8,9,9,10,10,11,11,12,12,13,13,14,14],"right_children":[2,4,6,8,10,12,14,16,18,20,22,24,26,28,30,-1,-1,-1,-1,-1,-1,-1,-1,-1,-1,-1,-1,-1,-1,-1,-1],"split_conditions":[5.960441E-1,2.2878608E-1,7.0386904E-1,5.0744045E-1,4.621201E-1,6.2831545E-1,7.801947E-1,6.5250236E-1,4.5394737E-1,3.6986968E-1,5.4231536E-1,2.7665433E-1,3.7099525E-1,4.3478838E-1,2.4152543E-1,3.4878197E-1,5.8223754E-1,-4.6533582E-1,6.1027087E-2,3.297943E-1,-1.0579827E-1,-4.147989E-1,-7.0725375E-1,-4.3200874E-1,-7.6382804E-1,-7.847312E-1,-1.0911127E0,-1.0726006E0,-1.2524463E0,-1.3453581E0,-1.2028536E0],"split_indices":[24,30,34,34,20,20,22,56,26,24,20,44,7,30,50,0,0,0,0,0,0,0,0,0,0,0,0,0,0,0,0],"split_type":[0,0,0,0,0,0,0,0,0,0,0,0,0,0,0,0,0,0,0,0,0,0,0,0,0,0,0,0,0,0,0],"sum_hessian":[1.5443E4,1.1592E4,3.851E3,1.0427E4,1.165E3,2.1E3,1.751E3,9.272E3,1.155E3,3.92E2,7.73E2,9.85E2,1.115E3,7.45E2,1.006E3,5.852E3,3.42E3,2.38E2,9.17E2,2.52E2,1.4E2,3.89E2,3.84E2,7.64E2,2.21E2,8.78E2,2.37E2,6.23E2,1.22E2,7.67E2,2.39E2],"tree_param":{"num_deleted":"0","num_feature":"58","num_nodes":"31","size_leaf_vector":"1"}},{"base_weights":[-3.2424185E-2,1.3868318E1,-3.6990215E1,1.6075253E1,-1.8116373E1,-4.8017036E1,-2.2592453E1,1.8830015E1,2.3456264E0,-2.5673737E1,-2.3484735E0,-4.1514275E1,-5.433486E1,-1.3170965E1,-2.9017078E1,3.7272224E-1,6.098176E-1,1.8587753E-1,-3.5787395E-1,-5.114618E-1,-8.184935E-1,8.616793E-2,-3.0070665E-1,-8.9475095E-1,-1.1576693E0,-1.1873759E0,-1.3285253E0,-1.7818262E-1,-6.3947195E-1,-4.6076035E-1,-7.448192E-1],"categories":[],"categories_nodes":[],"categories_segments":[],"categories_sizes":[],"default_left":[0,0,0,0,0,0,0,0,0,0,0,0,0,0,0,0,0,0,0,0,0,0,0,0,0,0,0,0,0,0,0],"id":15,"left_children":[1,3,5,7,9,11,13,15,17,19,21,23,25,27,29,-1,-1,-1,-1,-1,-1,-1,-1,-1,-1,-1,-1,-1,-1,-1,-1],"loss_changes":[7.935752E6,7.926435E5,6.692065E5,3.97123E5,8.633345E4,9.59335E4,1.1056844E5,1.79537E5,1.772301E5,1.6269281E4,1.5252455E4,2.7139625E4,8.26175E3,5.8682367E4,3.0322125E4,0E0,0E0,0E0,0E0,0E0,0E0,0E0,0E0,0E0,0E0,0E0,0E0,0E0,0E0,0E0,0E0],"parents":[2147483647,0,0,1,1,2,2,3,3,4,4,5,5,6,6,7,7,8,8,9,9,10,10,11,11,12,12,13,13,14,14],"right_children":[2,4,6,8,10,12,14,16,18,20,22,24,26,28,30,-1,-1,-1,-1,-1,-1,-1,-1,-1,-1,-1,-1,-1,-1,-1,-1],"split_conditions":[5.591615E-1,2.5143218E-1,3.334137E-1,4.8363096E-1,5.6152123E-1,7.5744045E-1,6.0484546E-1,6.7114097E-1,2.0886323E-1,3.7099525E-1,3.392141E-1,4.0896893E-1,8.1994045E-1,2.283501E-1,5.619972E-1,3.7272224E-1,6.098176E-1,1.8587753E-1,-3.5787395E-1,-5.114618E-1,-8.184935E-1,8.616793E-2,-3.0070665E-1,-8.9475095E-1,-1.1576693E0,-1.1873759E0,-1.3285253E0,-1.7818262E-1,-6.3947195E-1,-4.6076035E-1,-7.448192E-1],"split_indices":[22,32,56,34,52,34,16,52,44,7,44,10,34,32,18,0,0,0,0,0,0,0,0,0,0,0,0,0,0,0,0],"split_type":[0,0,0,0,0,0,0,0,0,0,0,0,0,0,0,0,0,0,0,0,0,0,0,0,0,0,0,0,0,0,0],"sum_hessian":[1.5445E4,1.1224E4,4.221E3,1.05E4,7.24E2,2.389E3,1.832E3,8.745E3,1.755E3,4.89E2,2.35E2,1.181E3,1.208E3,7.44E2,1.088E3,6.393E3,2.352E3,1.331E3,4.24E2,3.58E2,1.31E2,1.5E2,8.5E1,8.81E2,3E2,5.98E2,6.1E2,5.4E2,2.04E2,2.78E2,8.1E2],"tree_param":{"num_deleted":"0","num_feature":"58","num_nodes":"31","size_leaf_vector":"1"}},{"base_weights":[-5.352016E-2,1.3653139E1,-3.6258194E1,1.6165983E1,-1.2821941E1,-2.3310503E1,-4.767466E1,2.0292356E1,8.248189E0,5.5619054E0,-2.2975647E1,-1.3361472E1,-3.0018417E1,-4.102099E1,-5.2771114E1,4.0438628E-1,5.975092E-1,3.8285658E-1,-5.1031046E-2,2.5769335E-1,-1.3994274E-1,-4.5939815E-1,-8.0393106E-1,-1.7749122E-1,-6.2929976E-1,-6.2165165E-1,-9.349029E-1,-9.0704775E-1,-1.1800945E0,-1.2844257E0,-1.1408204E0],"categories":[],"categories_nodes":[],"categories_segments":[],"categories_sizes":[],"default_left":[0,0,0,0,0,0,0,0,0,0,0,0,0,0,0,0,0,0,0,0,0,0,0,0,0,0,0,0,0,0,0],"id":16,"left_children":[1,3,5,7,9,11,13,15,17,19,21,23,25,27,29,-1,-1,-1,-1,-1,-1,-1,-1,-1,-1,-1,-1,-1,-1,-1,-1],"loss_changes":[7.6744295E6,7.465155E5,6.26667E5,3.345875E5,1.8175202E5,1.325395E5,7.43365E4,1.04735E5,3.0337306E5,2.241662E4,2.249725E4,6.301692E4,3.8189625E4,1.643225E4,9.21725E3,0E0,0E0,0E0,0E0,0E0,0E0,0E0,0E0,0E0,0E0,0E0,0E0,0E0,0E0,0E0,0E0],"parents":[2147483647,0,0,1,1,2,2,3,3,4,4,5,5,6,6,7,7,8,8,9,9,10,10,11,11,12,12,13,13,14,14],"right_children":[2,4,6,8,10,12,14,16,18,20,22,24,26,28,30,-1,-1,-1,-1,-1,-1,-1,-1,-1,-1,-1,-1,-1,-1,-1,-1],"split_conditions":[5.808793E-1,2.3223169E-1,6.7173934E-1,4.414525E-1,4.621201E-1,6.1319965E-1,7.813991E-1,6.7114097E-1,1.4686431E-1,3.7619996E-1,3.822276E-1,2.551998E-1,3.3330706E-1,4.4005206E-1,2.1822034E-1,4.0438628E-1,5.975092E-1,3.8285658E-1,-5.1031046E-2,2.5769335E-1,-1.3994274E-1,-4.5939815E-1,-8.0393106E-1,-1.7749122E-1,-6.2929976E-1,-6.2165165E-1,-9.349029E-1,-9.0704775E-1,-1.1800945E0,-1.2844257E0,-1.1408204E0],"split_indices":[24,30,22,22,20,16,36,52,32,24,30,44,42,7,50,0,0,0,0,0,0,0,0,0,0,0,0,0,0,0,0],"split_type":[0,0,0,0,0,0,0,0,0,0,0,0,0,0,0,0,0,0,0,0,0,0,0,0,0,0,0,0,0,0,0],"sum_hessian":[1.5463E4,1.1217E4,4.246E3,1.0245E4,9.72E2,1.991E3,2.255E3,6.734E3,3.511E3,3.46E2,6.26E2,8.03E2,1.188E3,9.82E2,1.273E3,4.433E3,2.301E3,1.96E3,1.551E3,2.34E2,1.12E2,4.95E2,1.31E2,5.69E2,2.34E2,9.09E2,2.79E2,8.28E2,1.54E2,7.24E2,5.49E2],"tree_param":{"num_deleted":"0","num_feature":"58","num_nodes":"31","size_leaf_vector":"1"}},{"base_weights":[-1.7877078E-2,1.3258942E1,-3.533183E1,1.6085646E1,-1.009723E1,-4.579949E1,-2.15444E1,1.9245562E1,6.6795044E0,-2.0869755E1,1.0394607E1,-3.951726E1,-5.1869274E1,-1.3370928E1,-2.9336826E1,5.6610626E-1,3.7807795E-1,2.7369198E-1,-2.1305266E-1,-3.3437443E-1,-6.6023815E-1,4.0516028E-1,-3.3813827E-2,-8.499574E-1,-1.1023453E0,-1.1331744E0,-1.2685872E0,-1.7805654E-1,-5.6335753E-1,-5.782376E-1,-7.927243E-1],"categories":[],"categories_nodes":[],"categories_segments":[],"categories_sizes":[],"default_left":[0,0,0,0,0,0,0,0,0,0,0,0,0,0,0,0,0,0,0,0,0,0,0,0,0,0,0,0,0,0,0],"id":17,"left_children":[1,3,5,7,9,11,13,15,17,19,21,23,25,27,29,-1,-1,-1,-1,-1,-1,-1,-1,-1,-1,-1,-1,-1,-1,-1,-1],"loss_changes":[7.268688E6,7.4402075E5,6.10362E5,2.9861325E5,2.688682E5,8.97335E4,1.1616256E5,1.13919E5,2.0582247E5,3.873347E4,3.5278676E4,2.5478125E4,7.733E3,5.547514E4,1.9125875E4,0E0,0E0,0E0,0E0,0E0,0E0,0E0,0E0,0E0,0E0,0E0,0E0,0E0,0E0,0E0,0E0],"parents":[2147483647,0,0,1,1,2,2,3,3,4,4,5,5,6,6,7,7,8,8,9,9,10,10,11,11,12,12,13,13,14,14],"right_children":[2,4,6,8,10,12,14,16,18,20,22,24,26,28,30,-1,-1,-1,-1,-1,-1,-1,-1,-1,-1,-1,-1,-1,-1,-1,-1],"split_conditions":[5.591615E-1,2.2391331E-1,3.334137E-1,4.6868697E-1,5.950783E-1,7.5744045E-1,6.043223E-1,2.9577464E-1,2.0605513E-1,5.3633195E-1,2.548899E-1,4.0896893E-1,8.1994045E-1,1.9563927E-1,5.7894737E-1,5.6610626E-1,3.7807795E-1,2.7369198E-1,-2.1305266E-1,-3.3437443E-1,-6.6023815E-1,4.0516028E-1,-3.3813827E-2,-8.499574E-1,-1.1023453E0,-1.1331744E0,-1.2685872E0,-1.7805654E-1,-5.6335753E-1,-5.782376E-1,-7.927243E-1],"split_indices":[22,30,56,22,52,34,20,48,44,20,32,10,34,32,46,0,0,0,0,0,0,0,0,0,0,0,0,0,0,0,0],"split_type":[0,0,0,0,0,0,0,0,0,0,0,0,0,0,0,0,0,0,0,0,0,0,0,0,0,0,0,0,0,0,0],"sum_hessian":[1.5501E4,1.1266E4,4.235E3,1.005E4,1.216E3,2.406E3,1.829E3,7.522E3,2.528E3,7.97E2,4.19E2,1.186E3,1.22E3,8.94E2,9.35E2,2.722E3,4.8E3,1.911E3,6.17E2,4.33E2,3.64E2,2.62E2,1.57E2,8.79E2,3.07E2,6.04E2,6.16E2,5.89E2,3.05E2,4.94E2,4.41E2],"tree_param":{"num_deleted":"0","num_feature":"58","num_nodes":"31","size_leaf_vector":"1"}},{"base_weights":[-1.4510587E-1,1.3005618E1,-3.4581562E1,1.53301735E1,-1.7456339E1,-2.2120867E1,-4.5494823E1,2.0137823E1,9.587878E0,-7.639317E-1,-2.329453E1,-1.685031E1,-3.4598717E1,-3.8307858E1,-4.980533E1,5.7321E-1,3.9534855E-1,4.507192E-1,-2.2887727E-2,1.4207871E-1,-1.3113397E-1,-4.658873E-1,-8.603603E-1,-5.3857064E-1,-1.8280317E-1,-6.879668E-1,-9.612016E-1,-8.492452E-1,-1.1147536E0,-1.0699661E0,-1.2213032E0],"categories":[],"categories_nodes":[],"categories_segments":[],"categories_sizes":[],"default_left":[0,0,0,0,0,0,0,0,0,0,0,0,0,0,0,0,0,0,0,0,0,0,0,0,0,0,0,0,0,0,0],"id":18,"left_children":[1,3,5,7,9,11,13,15,17,19,21,23,25,27,29,-1,-1,-1,-1,-1,-1,-1,-1,-1,-1,-1,-1,-1,-1,-1,-1],"loss_changes":[6.97773E6,7.89805E5,5.780255E5,2.85815E5,7.706789E4,1.3028981E5,6.8384E4,7.935775E4,4.9214944E5,6.980841E3,2.5155125E4,7.995416E4,1.8703938E4,1.225475E4,1.242675E4,0E0,0E0,0E0,0E0,0E0,0E0,0E0,0E0,0E0,0E0,0E0,0E0,0E0,0E0,0E0,0E0],"parents":[2147483647,0,0,1,1,2,2,3,3,4,4,5,5,6,6,7,7,8,8,9,9,10,10,11,11,12,12,13,13,14,14],"right_children":[2,4,6,8,10,12,14,16,18,20,22,24,26,28,30,-1,-1,-1,-1,-1,-1,-1,-1,-1,-1,-1,-1,-1,-1,-1,-1],"split_conditions":[5.7154214E-1,2.5143218E-1,6.6071427E-1,3.9285713E-1,4.6700206E-1,2.7665433E-1,7.380952E-1,2.7106518E-1,1.4497632E-1,3.030763E-1,4.1796812E-1,4.4912282E-1,3.7202707E-1,4.3922424E-1,8.2539535E-1,5.7321E-1,3.9534855E-1,4.507192E-1,-2.2887727E-2,1.4207871E-1,-1.3113397E-1,-4.658873E-1,-8.603603E-1,-5.3857064E-1,-1.8280317E-1,-6.879668E-1,-9.612016E-1,-8.492452E-1,-1.1147536E0,-1.0699661E0,-1.2213032E0],"split_indices":[36,32,34,34,20,44,34,36,32,41,30,26,42,42,24,0,0,0,0,0,0,0,0,0,0,0,0,0,0,0,0],"split_type":[0,0,0,0,0,0,0,0,0,0,0,0,0,0,0,0,0,0,0,0,0,0,0,0,0,0,0,0,0,0,0],"sum_hessian":[1.5406E4,1.1149E4,4.257E3,1.0359E4,7.9E2,1.989E3,2.268E3,5.637E3,4.722E3,2.05E2,5.85E2,1.4E3,5.89E2,8.54E2,1.414E3,2.264E3,3.373E3,2.444E3,2.278E3,8.5E1,1.2E2,4.77E2,1.08E2,8.17E2,5.83E2,3.46E2,2.43E2,7.33E2,1.21E2,6.3E2,7.84E2],"tree_param":{"num_deleted":"0","num_feature":"58","num_nodes":"31","size_leaf_vector":"1"}},{"base_weights":[8.799967E-2,1.3366559E1,-3.24708E1,1.5240655E1,-1.53281145E1,-1.790135E1,-4.260288E1,1.8839142E1,8.115364E0,-2.6123622E-1,-2.217613E1,-1.1916096E1,-3.0985731E1,-3.425673E1,-4.7730946E1,5.603137E-1,3.753129E-1,3.8520715E-1,-1.5878424E-2,1.5909068E-1,-1.3507015E-1,-5.581178E-1,-1.4868034E-1,3.6654346E-2,-3.9856648E-1,-6.268783E-1,-9.400115E-1,-8.281543E-1,-5.3903794E-1,-1.0250863E0,-1.1939839E0],"categories":[],"categories_nodes":[],"categories_segments":[],"categories_sizes":[],"default_left":[0,0,0,0,0,0,0,0,0,0,0,0,0,0,0,0,0,0,0,0,0,0,0,0,0,0,0,0,0,0,0],"id":19,"left_children":[1,3,5,7,9,11,13,15,17,19,21,23,25,27,29,-1,-1,-1,-1,-1,-1,-1,-1,-1,-1,-1,-1,-1,-1,-1,-1],"loss_changes":[6.666591E6,5.892486E5,6.5865E5,2.6348025E5,6.9329984E4,1.4325744E5,1.110995E5,9.609925E4,2.5822706E5,8.404055E3,1.3663625E4,8.974356E4,2.0597E4,1.5383875E4,1.93105E4,0E0,0E0,0E0,0E0,0E0,0E0,0E0,0E0,0E0,0E0,0E0,0E0,0E0,0E0,0E0,0E0],"parents":[2147483647,0,0,1,1,2,2,3,3,4,4,5,5,6,6,7,7,8,8,9,9,10,10,11,11,12,12,13,13,14,14],"right_children":[2,4,6,8,10,12,14,16,18,20,22,24,26,28,30,-1,-1,-1,-1,-1,-1,-1,-1,-1,-1,-1,-1,-1,-1,-1,-1],"split_conditions":[5.497325E-1,2.5143218E-1,6.3095236E-1,4.711555E-1,4.6700206E-1,2.7496466E-1,7.157738E-1,2.7106518E-1,1.4897886E-1,3.1042448E-1,5.8277404E-1,5.6725144E-1,3.7099525E-1,4.1264567E-1,8.2539535E-1,5.603137E-1,3.753129E-1,3.8520715E-1,-1.5878424E-2,1.5909068E-1,-1.3507015E-1,-5.581178E-1,-1.4868034E-1,3.6654346E-2,-3.9856648E-1,-6.268783E-1,-9.400115E-1,-8.281543E-1,-5.3903794E-1,-1.0250863E0,-1.1939839E0],"split_indices":[22,32,34,18,20,44,34,36,32,41,52,16,7,54,24,0,0,0,0,0,0,0,0,0,0,0,0,0,0,0,0],"split_type":[0,0,0,0,0,0,0,0,0,0,0,0,0,0,0,0,0,0,0,0,0,0,0,0,0,0,0,0,0,0,0],"sum_hessian":[1.5418E4,1.0952E4,4.466E3,1.0281E4,6.71E2,1.833E3,2.633E3,6.83E3,3.451E3,2.1E2,4.61E2,1.259E3,5.74E2,1.005E3,1.628E3,2.266E3,4.564E3,1.755E3,1.696E3,9.2E1,1.18E2,4.11E2,5E1,3.54E2,9.05E2,4.09E2,1.65E2,8.85E2,1.2E2,8.49E2,7.79E2],"tree_param":{"num_deleted":"0","num_feature":"58","num_nodes":"31","size_leaf_vector":"1"}},{"base_weights":[-6.789385E-2,1.2408138E1,-3.3028484E1,1.5471041E1,-8.594422E0,-2.0617676E1,-4.2926296E1,1.8195284E1,6.7564073E0,-1.8692806E1,1.0694335E1,-1.0931523E1,-2.6749199E1,-3.4689495E1,-4.6751633E1,5.534044E-1,3.6625245E-1,4.037895E-1,-1.702092E-2,-2.9497048E-1,-5.9657097E-1,4.358992E-1,5.4311305E-2,-1.778348E-1,-6.021533E-1,-4.8508725E-1,-7.354772E-1,-7.5315E-1,-9.930467E-1,-1.0049561E0,-1.1657604E0],"categories":[],"categories_nodes":[],"categories_segments":[],"categories_sizes":[],"default_left":[0,0,0,0,0,0,0,0,0,0,0,0,0,0,0,0,0,0,0,0,0,0,0,0,0,0,0,0,0,0,0],"id":20,"left_children":[1,3,5,7,9,11,13,15,17,19,21,23,25,27,29,-1,-1,-1,-1,-1,-1,-1,-1,-1,-1,-1,-1,-1,-1,-1,-1],"loss_changes":[6.3528965E6,7.210656E5,5.202015E5,2.3208575E5,2.781585E5,1.116E5,7.2707E4,1.0100125E5,1.8614969E5,3.9048156E4,3.3202285E4,3.5704273E4,3.275E4,1.21036875E4,1.715375E4,0E0,0E0,0E0,0E0,0E0,0E0,0E0,0E0,0E0,0E0,0E0,0E0,0E0,0E0,0E0,0E0],"parents":[2147483647,0,0,1,1,2,2,3,3,4,4,5,5,6,6,7,7,8,8,9,9,10,10,11,11,12,12,13,13,14,14],"right_children":[2,4,6,8,10,12,14,16,18,20,22,24,26,28,30,-1,-1,-1,-1,-1,-1,-1,-1,-1,-1,-1,-1,-1,-1,-1,-1],"split_conditions":[5.7154214E-1,2.1987645E-1,6.634944E-1,4.7166914E-1,5.950783E-1,5.9387374E-1,7.157738E-1,1.4239787E-1,1.2642004E-1,5.3633195E-1,2.9297978E-1,2.6731607E-1,6.3533837E-1,3.990608E-1,8.2539535E-1,5.534044E-1,3.6625245E-1,4.037895E-1,-1.702092E-2,-2.9497048E-1,-5.9657097E-1,4.358992E-1,5.4311305E-2,-1.778348E-1,-6.021533E-1,-4.8508725E-1,-7.354772E-1,-7.5315E-1,-9.930467E-1,-1.0049561E0,-1.1657604E0],"split_indices":[36,30,22,22,52,20,34,32,32,20,44,44,16,10,24,0,0,0,0,0,0,0,0,0,0,0,0,0,0,0,0],"split_type":[0,0,0,0,0,0,0,0,0,0,0,0,0,0,0,0,0,0,0,0,0,0,0,0,0,0,0,0,0,0,0],"sum_hessian":[1.5447E4,1.1206E4,4.241E3,9.78E3,1.426E3,1.883E3,2.358E3,7.45E3,2.33E3,9.36E2,4.9E2,7.31E2,1.152E3,7.51E2,1.607E3,2.21E3,5.24E3,9.61E2,1.369E3,5.08E2,4.28E2,2.48E2,2.42E2,6.02E2,1.29E2,5.33E2,6.19E2,5.95E2,1.56E2,8.25E2,7.82E2],"tree_param":{"num_deleted":"0","num_feature":"58","num_nodes":"31","size_leaf_vector":"1"}},{"base_weights":[1.4210659E-2,1.2460155E1,-3.1283224E1,1.5183878E1,-7.4883485E0,-1.7251944E1,-4.072161E1,1.8399855E1,8.470695E0,-2.0167353E1,7.48931E0,-1.1410558E1,-2.9247936E1,-3.273102E1,-4.5538925E1,3.6614454E-1,5.320933E-1,3.2639515E-1,-5.4881442E-2,-3.400578E-1,-5.955309E-1,3.2737938E-1,-6.1520793E-2,4.8219673E-2,-3.8084665E-1,-5.931953E-1,-9.235014E-1,-7.173032E-1,-9.6114975E-1,-9.7325E-1,-1.1342448E0],"categories":[],"categories_nodes":[],"categories_segments":[],"categories_sizes":[],"default_left":[0,0,0,0,0,0,0,0,0,0,0,0,0,0,0,0,0,0,0,0,0,0,0,0,0,0,0,0,0,0,0],"id":21,"left_children":[1,3,5,7,9,11,13,15,17,19,21,23,25,27,29,-1,-1,-1,-1,-1,-1,-1,-1,-1,-1,-1,-1,-1,-1,-1,-1],"loss_changes":[6.019737E6,6.008869E5,5.81604E5,2.0988775E5,2.5253053E5,1.2369581E5,9.96695E4,7.766625E4,1.916649E5,2.1480188E4,4.106896E4,8.070534E4,2.1422125E4,1.4224E4,1.7669E4,0E0,0E0,0E0,0E0,0E0,0E0,0E0,0E0,0E0,0E0,0E0,0E0,0E0,0E0,0E0,0E0],"parents":[2147483647,0,0,1,1,2,2,3,3,4,4,5,5,6,6,7,7,8,8,9,9,10,10,11,11,12,12,13,13,14,14],"right_children":[2,4,6,8,10,12,14,16,18,20,22,24,26,28,30,-1,-1,-1,-1,-1,-1,-1,-1,-1,-1,-1,-1,-1,-1,-1,-1],"split_conditions":[5.5205685E-1,2.1987645E-1,6.3095236E-1,4.9203703E-1,5.6152123E-1,2.6960105E-1,7.157738E-1,7.2477067E-1,1.6287988E-1,5.3496265E-1,4.262495E-1,5.6725144E-1,4.2088968E-1,3.855403E-1,8.192042E-1,3.6614454E-1,5.320933E-1,3.2639515E-1,-5.4881442E-2,-3.400578E-1,-5.955309E-1,3.2737938E-1,-6.1520793E-2,4.8219673E-2,-3.8084665E-1,-5.931953E-1,-9.235014E-1,-7.173032E-1,-9.6114975E-1,-9.7325E-1,-1.1342448E0],"split_indices":[22,30,34,20,52,44,34,28,32,20,20,16,10,10,24,0,0,0,0,0,0,0,0,0,0,0,0,0,0,0,0],"split_type":[0,0,0,0,0,0,0,0,0,0,0,0,0,0,0,0,0,0,0,0,0,0,0,0,0,0,0,0,0,0,0],"sum_hessian":[1.5452E4,1.1056E4,4.396E3,9.728E3,1.328E3,1.769E3,2.627E3,6.576E3,3.152E3,7.19E2,6.09E2,1.191E3,5.78E2,9.91E2,1.636E3,4.184E3,2.392E3,2.077E3,1.075E3,3.62E2,3.57E2,3.68E2,2.41E2,3.23E2,8.68E2,4.32E2,1.46E2,8.26E2,1.65E2,8.04E2,8.32E2],"tree_param":{"num_deleted":"0","num_feature":"58","num_nodes":"31","size_leaf_vector":"1"}},{"base_weights":[-6.495113E-2,1.1869966E1,-3.153842E1,1.3983956E1,-1.58268175E1,-1.8332727E1,-4.007676E1,9.811284E0,1.9776598E1,-1.563702E-1,-2.150776E1,-1.0377622E1,-2.4866495E1,-3.267151E1,-4.4657036E1,4.1981906E-1,6.066501E-2,5.3236234E-1,3.8676634E-1,1.1480615E-1,-1.7510496E-1,-4.275382E-1,-7.9315907E-1,-1.5320565E-1,-5.851115E-1,-3.6999872E-1,-6.4907026E-1,-7.0680165E-1,-9.460476E-1,-1.1187788E0,-9.6490294E-1],"categories":[],"categories_nodes":[],"categories_segments":[],"categories_sizes":[],"default_left":[0,0,0,0,0,0,0,0,0,0,0,0,0,0,0,0,0,0,0,0,0,0,0,0,0,0,0,0,0,0,0],"id":22,"left_children":[1,3,5,7,9,11,13,15,17,19,21,23,25,27,29,-1,-1,-1,-1,-1,-1,-1,-1,-1,-1,-1,-1,-1,-1,-1,-1],"loss_changes":[5.790009E6,6.545845E5,4.771195E5,2.5079538E5,7.05918E4,8.633531E4,8.581225E4,3.6038075E5,4.2468375E4,8.047616E3,2.2042281E4,4.2011195E4,2.503625E4,1.6297E4,1.5344E4,0E0,0E0,0E0,0E0,0E0,0E0,0E0,0E0,0E0,0E0,0E0,0E0,0E0,0E0,0E0,0E0],"parents":[2147483647,0,0,1,1,2,2,3,3,4,4,5,5,6,6,7,7,8,8,9,9,10,10,11,11,12,12,13,13,14,14],"right_children":[2,4,6,8,10,12,14,16,18,20,22,24,26,28,30,-1,-1,-1,-1,-1,-1,-1,-1,-1,-1,-1,-1,-1,-1,-1,-1],"split_conditions":[5.7154214E-1,2.5143218E-1,6.474563E-1,6.3759315E-1,4.6700206E-1,6.1319965E-1,7.157738E-1,1.4497632E-1,2.6868045E-1,3.4986198E-1,4.1796812E-1,2.614714E-1,5.810139E-1,4.039716E-1,1.6989131E-1,4.1981906E-1,6.066501E-2,5.3236234E-1,3.8676634E-1,1.1480615E-1,-1.7510496E-1,-4.275382E-1,-7.9315907E-1,-1.5320565E-1,-5.851115E-1,-3.6999872E-1,-6.4907026E-1,-7.0680165E-1,-9.460476E-1,-1.1187788E0,-9.6490294E-1],"split_indices":[36,32,20,54,20,16,34,32,36,41,30,44,20,30,56,0,0,0,0,0,0,0,0,0,0,0,0,0,0,0,0],"split_type":[0,0,0,0,0,0,0,0,0,0,0,0,0,0,0,0,0,0,0,0,0,0,0,0,0,0,0,0,0,0,0],"sum_hessian":[1.5412E4,1.1175E4,4.237E3,1.0383E4,7.92E2,1.665E3,2.572E3,6.037E3,4.346E3,2.11E2,5.81E2,7.52E2,9.13E2,9.86E2,1.586E3,2.803E3,3.234E3,2.138E3,2.208E3,1.25E2,8.6E1,4.7E2,1.11E2,6.01E2,1.51E2,2.39E2,6.74E2,7.81E2,2.05E2,7.19E2,8.67E2],"tree_param":{"num_deleted":"0","num_feature":"58","num_nodes":"31","size_leaf_vector":"1"}},{"base_weights":[-3.5363056E-2,1.1589915E1,-3.0783075E1,1.44732685E1,-8.095209E0,-1.8879812E1,-3.9740955E1,1.7157074E1,6.4148116E0,-1.752791E1,1.0415894E1,-9.560706E0,-2.3866077E1,-3.342114E1,-4.429643E1,5.234398E-1,3.451112E-1,3.3145654E-1,-7.385526E-2,-3.332406E-1,-6.677801E-1,3.7302887E-1,-1.667143E-2,-1.23048216E-1,-5.694171E-1,-4.8986822E-1,-7.8930193E-1,-7.328558E-1,-9.863703E-1,-9.6533877E-1,-1.105444E0],"categories":[],"categories_nodes":[],"categories_segments":[],"categories_sizes":[],"default_left":[0,0,0,0,0,0,0,0,0,0,0,0,0,0,0,0,0,0,0,0,0,0,0,0,0,0,0,0,0,0,0],"id":23,"left_children":[1,3,5,7,9,11,13,15,17,19,21,23,25,27,29,-1,-1,-1,-1,-1,-1,-1,-1,-1,-1,-1,-1,-1,-1,-1,-1],"loss_changes":[5.5072425E6,6.346845E5,4.499665E5,2.1079975E5,2.496998E5,8.420331E4,6.793125E4,8.972375E4,1.8453206E5,3.3265812E4,3.0528188E4,4.0382086E4,3.2232062E4,1.54065E4,1.0594E4,0E0,0E0,0E0,0E0,0E0,0E0,0E0,0E0,0E0,0E0,0E0,0E0,0E0,0E0,0E0,0E0],"parents":[2147483647,0,0,1,1,2,2,3,3,4,4,5,5,6,6,7,7,8,8,9,9,10,10,11,11,12,12,13,13,14,14],"right_children":[2,4,6,8,10,12,14,16,18,20,22,24,26,28,30,-1,-1,-1,-1,-1,-1,-1,-1,-1,-1,-1,-1,-1,-1,-1,-1],"split_conditions":[5.7154214E-1,2.1987645E-1,6.579248E-1,4.6868697E-1,5.9731543E-1,5.6498057E-1,7.380952E-1,1.4239787E-1,1.4371406E-1,3.855403E-1,2.4760439E-1,2.5321072E-1,3.2270226E-1,4.308494E-1,8.1994045E-1,5.234398E-1,3.451112E-1,3.3145654E-1,-7.385526E-2,-3.332406E-1,-6.677801E-1,3.7302887E-1,-1.667143E-2,-1.23048216E-1,-5.694171E-1,-4.8986822E-1,-7.8930193E-1,-7.328558E-1,-9.863703E-1,-9.6533877E-1,-1.105444E0],"split_indices":[36,30,22,22,52,14,34,32,32,10,30,42,44,10,34,0,0,0,0,0,0,0,0,0,0,0,0,0,0,0,0],"split_type":[0,0,0,0,0,0,0,0,0,0,0,0,0,0,0,0,0,0,0,0,0,0,0,0,0,0,0,0,0,0,0],"sum_hessian":[1.5405E4,1.1179E4,4.226E3,9.751E3,1.428E3,1.816E3,2.41E3,7.314E3,2.437E3,9.46E2,4.82E2,6.34E2,1.182E3,1.013E3,1.397E3,2.157E3,5.157E3,1.338E3,1.099E3,7.41E2,2.05E2,3.19E2,1.63E2,4.95E2,1.39E2,9.34E2,2.48E2,8.49E2,1.64E2,7.9E2,6.07E2],"tree_param":{"num_deleted":"0","num_feature":"58","num_nodes":"31","size_leaf_vector":"1"}},{"base_weights":[2.7581453E-2,1.1175301E1,-3.0779335E1,1.3472103E1,-7.404829E0,-1.4792075E1,-3.7039158E1,1.5433541E1,-1.804718E0,7.523473E0,-1.6764252E1,1.2001874E1,-1.7618567E1,-3.0312256E1,-4.252807E1,3.0454627E-1,4.985189E-1,-2.9838896E-1,7.6870665E-2,-3.0497579E-2,3.4234118E-1,-3.35279E-1,-6.081739E-1,5.55698E-1,1.0780578E-1,-2.9648668E-1,-6.5521735E-1,-6.550706E-1,-8.848051E-1,-8.8563466E-1,-1.0403666E0],"categories":[],"categories_nodes":[],"categories_segments":[],"categories_sizes":[],"default_left":[0,0,0,0,0,0,0,0,0,0,0,0,0,0,0,0,0,0,0,0,0,0,0,0,0,0,0,0,0,0,0],"id":24,"left_children":[1,3,5,7,9,11,13,15,17,19,21,23,25,27,29,-1,-1,-1,-1,-1,-1,-1,-1,-1,-1,-1,-1,-1,-1,-1,-1],"loss_changes":[5.3069755E6,4.843315E5,4.1036975E5,3.0263975E5,1.7463677E5,8.783439E4,1.0763475E5,1.245135E5,6.520359E4,3.0876799E4,1.6363844E4,9.654509E3,5.346228E4,2.0386E4,1.4757E4,0E0,0E0,0E0,0E0,0E0,0E0,0E0,0E0,0E0,0E0,0E0,0E0,0E0,0E0,0E0,0E0],"parents":[2147483647,0,0,1,1,2,2,3,3,4,4,5,5,6,6,7,7,8,8,9,9,10,10,11,11,12,12,13,13,14,14],"right_children":[2,4,6,8,10,12,14,16,18,20,22,24,26,28,30,-1,-1,-1,-1,-1,-1,-1,-1,-1,-1,-1,-1,-1,-1,-1,-1],"split_conditions":[5.8336556E-1,2.283501E-1,6.3533837E-1,5.0744045E-1,4.5685112E-1,4.2105263E-1,7.157738E-1,7.22183E-1,4.6140352E-1,7.553444E-1,3.855403E-1,4.9219367E-1,2.655471E-1,3.855403E-1,7.7431804E-1,3.0454627E-1,4.985189E-1,-2.9838896E-1,7.6870665E-2,-3.0497579E-2,3.4234118E-1,-3.35279E-1,-6.081739E-1,5.55698E-1,1.0780578E-1,-2.9648668E-1,-6.5521735E-1,-6.550706E-1,-8.848051E-1,-8.8563466E-1,-1.0403666E0],"split_indices":[20,32,16,34,20,46,34,28,26,40,10,22,42,10,22,0,0,0,0,0,0,0,0,0,0,0,0,0,0,0,0],"split_type":[0,0,0,0,0,0,0,0,0,0,0,0,0,0,0,0,0,0,0,0,0,0,0,0,0,0,0,0,0,0,0],"sum_hessian":[1.5451E4,1.1346E4,4.105E3,1.0098E4,1.248E3,1.156E3,2.949E3,8.949E3,1.149E3,4.81E2,7.67E2,1.1E2,1.046E3,1.328E3,1.621E3,6.494E3,2.455E3,3.63E2,7.86E2,2.17E2,2.64E2,6.19E2,1.48E2,4.1E1,6.9E1,7.21E2,3.25E2,1.056E3,2.72E2,5.76E2,1.045E3],"tree_param":{"num_deleted":"0","num_feature":"58","num_nodes":"31","size_leaf_vector":"1"}},{"base_weights":[5.3304113E-2,1.1346646E1,-2.8890125E1,1.3528131E1,-1.0331478E1,-1.6150896E1,-3.700217E1,1.0283664E1,1.9805882E1,-1.8798992E1,3.7564323E0,-1.0812946E1,-2.7759678E1,-2.9779568E1,-4.14694E1,4.080664E-1,9.8281644E-2,5.17875E-1,4.093186E-1,-3.6966693E-1,-6.6341364E-1,2.1243596E-1,-1.7332786E-1,-4.31752E-1,-8.615503E-2,-5.578303E-1,-8.067755E-1,-7.2586524E-1,-4.4925824E-1,-1.0435809E0,-8.95701E-1],"categories":[],"categories_nodes":[],"categories_segments":[],"categories_sizes":[],"default_left":[0,0,0,0,0,0,0,0,0,0,0,0,0,0,0,0,0,0,0,0,0,0,0,0,0,0,0,0,0,0,0],"id":25,"left_children":[1,3,5,7,9,11,13,15,17,19,21,23,25,27,29,-1,-1,-1,-1,-1,-1,-1,-1,-1,-1,-1,-1,-1,-1,-1,-1],"loss_changes":[5.05665E6,5.2638825E5,4.481095E5,2.0573662E5,1.215074E5,1.0448616E5,8.433175E4,2.9485838E5,1.8357875E4,1.7361656E4,2.3328578E4,6.4224906E4,1.3013469E4,1.5573E4,1.4696E4,0E0,0E0,0E0,0E0,0E0,0E0,0E0,0E0,0E0,0E0,0E0,0E0,0E0,0E0,0E0,0E0],"parents":[2147483647,0,0,1,1,2,2,3,3,4,4,5,5,6,6,7,7,8,8,9,9,10,10,11,11,12,12,13,13,14,14],"right_children":[2,4,6,8,10,12,14,16,18,20,22,24,26,28,30,-1,-1,-1,-1,-1,-1,-1,-1,-1,-1,-1,-1,-1,-1,-1,-1],"split_conditions":[5.3869045E-1,2.3223169E-1,6.3095236E-1,6.5250236E-1,5.64877E-1,2.5898495E-1,7.157738E-1,1.4231977E-1,2.4562798E-1,3.7099525E-1,3.1795415E-1,4.4912282E-1,3.7202707E-1,4.1264567E-1,1.6989131E-1,4.080664E-1,9.8281644E-2,5.17875E-1,4.093186E-1,-3.6966693E-1,-6.6341364E-1,2.1243596E-1,-1.7332786E-1,-4.31752E-1,-8.615503E-2,-5.578303E-1,-8.067755E-1,-7.2586524E-1,-4.4925824E-1,-1.0435809E0,-8.95701E-1],"split_indices":[34,30,34,56,52,42,34,30,36,7,42,26,42,54,56,0,0,0,0,0,0,0,0,0,0,0,0,0,0,0,0],"split_type":[0,0,0,0,0,0,0,0,0,0,0,0,0,0,0,0,0,0,0,0,0,0,0,0,0,0,0,0,0,0,0],"sum_hessian":[1.5468E4,1.1127E4,4.341E3,1.011E4,1.017E3,1.69E3,2.651E3,6.667E3,3.443E3,6.35E2,3.82E2,1.159E3,5.31E2,1.016E3,1.635E3,3.015E3,3.652E3,1.577E3,1.866E3,4.94E2,1.41E2,2.58E2,1.24E2,5.51E2,6.08E2,3.51E2,1.8E2,8.84E2,1.32E2,7.2E2,9.15E2],"tree_param":{"num_deleted":"0","num_feature":"58","num_nodes":"31","size_leaf_vector":"1"}},{"base_weights":[-1.1752466E-1,1.0521787E1,-2.9458157E1,1.2937945E1,-6.727232E0,-1.3319895E1,-3.5136574E1,1.4767813E1,-1.544263E0,-1.5302259E1,9.2441435E0,9.553737E0,-1.633964E1,-2.8449524E1,-4.038801E1,4.6913418E-1,2.878012E-1,-2.831248E-1,8.076587E-2,-1.6260248E-1,-4.1147092E-1,3.870831E-1,4.0671878E-2,4.0149805E-1,-2.0592828E-1,-2.799954E-1,-6.358867E-1,-6.1563104E-1,-8.3799535E-1,-1.0111313E0,-8.5967267E-1],"categories":[],"categories_nodes":[],"categories_segments":[],"categories_sizes":[],"default_left":[0,0,0,0,0,0,0,0,0,0,0,0,0,0,0,0,0,0,0,0,0,0,0,0,0,0,0,0,0,0,0],"id":26,"left_children":[1,3,5,7,9,11,13,15,17,19,21,23,25,27,29,-1,-1,-1,-1,-1,-1,-1,-1,-1,-1,-1,-1,-1,-1,-1,-1],"loss_changes":[4.837605E6,4.740725E5,3.7745425E5,2.6439188E5,1.9160452E5,7.440906E4,1.05957E5,1.13741875E5,6.0116977E4,1.8324203E4,2.7264176E4,1.8189844E4,4.4569312E4,1.8658125E4,1.65825E4,0E0,0E0,0E0,0E0,0E0,0E0,0E0,0E0,0E0,0E0,0E0,0E0,0E0,0E0,0E0,0E0],"parents":[2147483647,0,0,1,1,2,2,3,3,4,4,5,5,6,6,7,7,8,8,9,9,10,10,11,11,12,12,13,13,14,14],"right_children":[2,4,6,8,10,12,14,16,18,20,22,24,26,28,30,-1,-1,-1,-1,-1,-1,-1,-1,-1,-1,-1,-1,-1,-1,-1,-1],"split_conditions":[5.8336556E-1,2.1987645E-1,6.2865496E-1,5.0744045E-1,5.9284115E-1,4.5774648E-1,7.083333E-1,2.9577464E-1,4.6140352E-1,4.781651E-1,2.9297978E-1,1.5752935E-1,2.8026217E-1,3.822276E-1,2.2881356E-1,4.6913418E-1,2.878012E-1,-2.831248E-1,8.076587E-2,-1.6260248E-1,-4.1147092E-1,3.870831E-1,4.0671878E-2,4.0149805E-1,-2.0592828E-1,-2.799954E-1,-6.358867E-1,-6.1563104E-1,-8.3799535E-1,-1.0111313E0,-8.5967267E-1],"split_indices":[20,30,16,34,52,48,34,48,26,20,44,30,44,30,50,0,0,0,0,0,0,0,0,0,0,0,0,0,0,0,0],"split_type":[0,0,0,0,0,0,0,0,0,0,0,0,0,0,0,0,0,0,0,0,0,0,0,0,0,0,0,0,0,0,0],"sum_hessian":[1.5495E4,1.1372E4,4.123E3,9.975E3,1.397E3,1.074E3,3.049E3,8.856E3,1.119E3,9.09E2,4.88E2,1.25E2,9.49E2,1.344E3,1.705E3,2.663E3,6.193E3,3.58E2,7.61E2,2.08E2,7.01E2,2.44E2,2.44E2,8.8E1,3.7E1,6.87E2,2.62E2,1.082E3,2.62E2,8.57E2,8.48E2],"tree_param":{"num_deleted":"0","num_feature":"58","num_nodes":"31","size_leaf_vector":"1"}},{"base_weights":[-9.2636086E-2,1.1131206E1,-2.6643244E1,1.3334705E1,-5.691792E0,-1.495279E1,-3.5694405E1,6.2951255E0,1.57834015E1,9.76407E0,-1.5036815E1,-5.9436655E-1,-1.8618399E1,-4.1051163E1,-3.0596773E1,2.5346753E-1,-1.5732653E-1,4.9038386E-1,3.160138E-1,3.195285E-1,-1.5972303E-1,-2.4969792E-1,-5.120617E-1,1.9373026E-1,-4.0113205E-1,-5.9241766E-1,-3.4879884E-1,-8.7786216E-1,-1.0077839E0,-6.509943E-1,-8.096822E-1],"categories":[],"categories_nodes":[],"categories_segments":[],"categories_sizes":[],"default_left":[0,0,0,0,0,0,0,0,0,0,0,0,0,0,0,0,0,0,0,0,0,0,0,0,0,0,0,0,0,0,0],"id":27,"left_children":[1,3,5,7,9,11,13,15,17,19,21,23,25,27,29,-1,-1,-1,-1,-1,-1,-1,-1,-1,-1,-1,-1,-1,-1,-1,-1],"loss_changes":[4.6064795E6,4.0283575E5,4.8546175E5,1.65504E5,1.8199094E5,1.0556941E5,6.9414E4,1.5059127E5,8.2075E4,3.1881328E4,2.3374484E4,6.1308758E4,3.9215438E4,8.05325E3,1.3507375E4,0E0,0E0,0E0,0E0,0E0,0E0,0E0,0E0,0E0,0E0,0E0,0E0,0E0,0E0,0E0,0E0],"parents":[2147483647,0,0,1,1,2,2,3,3,4,4,5,5,6,6,7,7,8,8,9,9,10,10,11,11,12,12,13,13,14,14],"right_children":[2,4,6,8,10,12,14,16,18,20,22,24,26,28,30,-1,-1,-1,-1,-1,-1,-1,-1,-1,-1,-1,-1,-1,-1,-1,-1],"split_conditions":[5.67268E-1,2.1987645E-1,6.474563E-1,5.2754235E-1,3.4578696E-1,5.6725144E-1,2.5012416E-1,2.0605513E-1,1.4045052E-1,2.6748553E-1,5.3496265E-1,2.0980832E-1,4.2552057E-1,7.565763E-1,7.083333E-1,2.5346753E-1,-1.5732653E-1,4.9038386E-1,3.160138E-1,3.195285E-1,-1.5972303E-1,-2.4969792E-1,-5.120617E-1,1.9373026E-1,-4.0113205E-1,-5.9241766E-1,-3.4879884E-1,-8.7786216E-1,-1.0077839E0,-6.509943E-1,-8.096822E-1],"split_indices":[24,30,20,50,36,16,54,44,32,32,20,42,38,18,34,0,0,0,0,0,0,0,0,0,0,0,0,0,0,0,0],"split_type":[0,0,0,0,0,0,0,0,0,0,0,0,0,0,0,0,0,0,0,0,0,0,0,0,0,0,0,0,0,0,0],"sum_hessian":[1.5456E4,1.0864E4,4.592E3,9.606E3,1.258E3,2.005E3,2.587E3,2.48E3,7.126E3,4.74E2,7.84E2,4.08E2,1.597E3,1.258E3,1.329E3,1.831E3,6.49E2,2.037E3,5.089E3,3.82E2,9.2E1,4.9E2,2.94E2,2.66E2,1.42E2,5.41E2,1.056E3,5.5E2,7.08E2,8.45E2,4.84E2],"tree_param":{"num_deleted":"0","num_feature":"58","num_nodes":"31","size_leaf_vector":"1"}},{"base_weights":[-9.906335E-2,9.944133E0,-2.83685E1,1.2414895E1,-7.38602E0,-1.9166506E1,-3.6810574E1,1.729715E0,1.4503259E1,-1.6027214E1,9.21953E0,-1.53836E1,-2.9338001E1,-3.3078102E1,-4.1197247E1,1.1793969E-1,-2.6001936E-1,4.5539743E-1,2.7648494E-1,-2.2489993E-1,-4.6895355E-1,3.3773354E-1,-1.9445937E-2,-5.164854E-1,-2.203781E-1,-6.2528443E-1,-8.857819E-1,-8.1999606E-1,-6.8463963E-1,-9.963519E-1,-8.987591E-1],"categories":[],"categories_nodes":[],"categories_segments":[],"categories_sizes":[],"default_left":[0,0,0,0,0,0,0,0,0,0,0,0,0,0,0,0,0,0,0,0,0,0,0,0,0,0,0,0,0,0,0],"id":28,"left_children":[1,3,5,7,9,11,13,15,17,19,21,23,25,27,29,-1,-1,-1,-1,-1,-1,-1,-1,-1,-1,-1,-1,-1,-1,-1,-1],"loss_changes":[4.3799625E6,4.8749675E5,3.134485E5,2.22295E5,2.0404958E5,7.408019E4,3.315175E4,7.090143E4,1.10169125E5,2.4650172E4,2.6209246E4,5.7088656E4,9.971094E3,8.253E3,2.506375E3,0E0,0E0,0E0,0E0,0E0,0E0,0E0,0E0,0E0,0E0,0E0,0E0,0E0,0E0,0E0,0E0],"parents":[2147483647,0,0,1,1,2,2,3,3,4,4,5,5,6,6,7,7,8,8,9,9,10,10,11,11,12,12,13,13,14,14],"right_children":[2,4,6,8,10,12,14,16,18,20,22,24,26,28,30,-1,-1,-1,-1,-1,-1,-1,-1,-1,-1,-1,-1,-1,-1,-1,-1],"split_conditions":[5.666608E-1,2.1987645E-1,6.7113096E-1,4.720358E-1,5.9731543E-1,2.764027E-1,7.861152E-1,2.098554E-1,1.4239787E-1,4.915264E-1,2.4760439E-1,4.39402E-1,4.5705825E-1,3.0208215E-1,1.7673378E-1,1.1793969E-1,-2.6001936E-1,4.5539743E-1,2.7648494E-1,-2.2489993E-1,-4.6895355E-1,3.3773354E-1,-1.9445937E-2,-5.164854E-1,-2.203781E-1,-6.2528443E-1,-8.857819E-1,-8.1999606E-1,-6.8463963E-1,-9.963519E-1,-8.987591E-1],"split_indices":[22,30,34,52,52,30,22,44,32,18,30,38,7,54,52,0,0,0,0,0,0,0,0,0,0,0,0,0,0,0,0],"split_type":[0,0,0,0,0,0,0,0,0,0,0,0,0,0,0,0,0,0,0,0,0,0,0,0,0,0,0,0,0,0,0],"sum_hessian":[1.5425E4,1.1382E4,4.043E3,9.962E3,1.42E3,1.936E3,2.107E3,1.629E3,8.333E3,9.34E2,4.86E2,1.413E3,5.23E2,1.143E3,9.64E2,1.294E3,3.35E2,2.781E3,5.552E3,3.74E2,5.6E2,3.17E2,1.69E2,6.49E2,7.64E2,4.16E2,1.07E2,6.89E2,4.54E2,5.47E2,4.17E2],"tree_param":{"num_deleted":"0","num_feature":"58","num_nodes":"31","size_leaf_vector":"1"}},{"base_weights":[-3.1516716E-2,1.013787E1,-2.6899696E1,1.2124886E1,-1.1649538E1,-1.655834E1,-3.4637157E1,8.994744E0,1.8244722E1,-1.845774E1,1.411027E0,-8.467017E0,-2.1551138E1,-3.870121E1,-2.9278324E1,3.8322583E-1,7.523917E-2,4.8198235E-1,3.7356776E-1,-3.6786786E-1,-6.9487894E-1,1.3841464E-1,-2.4130009E-1,-2.8543256E-2,-3.2973465E-1,-4.323739E-1,-6.8958545E-1,-8.34382E-1,-9.7254777E-1,-4.7586283E-1,-7.0470226E-1],"categories":[],"categories_nodes":[],"categories_segments":[],"categories_sizes":[],"default_left":[0,0,0,0,0,0,0,0,0,0,0,0,0,0,0,0,0,0,0,0,0,0,0,0,0,0,0,0,0,0,0],"id":29,"left_children":[1,3,5,7,9,11,13,15,17,19,21,23,25,27,29,-1,-1,-1,-1,-1,-1,-1,-1,-1,-1,-1,-1,-1,-1,-1,-1],"loss_changes":[4.220355E6,4.8522725E5,3.3877375E5,1.965485E5,8.334311E4,7.3221375E4,5.167975E4,2.943662E5,1.850875E4,1.789789E4,1.7413654E4,2.8926812E4,2.6140094E4,1.060875E4,9.65025E3,0E0,0E0,0E0,0E0,0E0,0E0,0E0,0E0,0E0,0E0,0E0,0E0,0E0,0E0,0E0,0E0],"parents":[2147483647,0,0,1,1,2,2,3,3,4,4,5,5,6,6,7,7,8,8,9,9,10,10,11,11,12,12,13,13,14,14],"right_children":[2,4,6,8,10,12,14,16,18,20,22,24,26,28,30,-1,-1,-1,-1,-1,-1,-1,-1,-1,-1,-1,-1,-1,-1,-1,-1],"split_conditions":[5.7154214E-1,2.4243994E-1,6.579248E-1,6.5250236E-1,5.6152123E-1,5.916113E-1,2.4569546E-1,1.4239787E-1,2.4562798E-1,4.1796812E-1,3.392141E-1,5.564202E-1,3.3988976E-1,7.876343E-1,6.1160713E-1,3.8322583E-1,7.523917E-2,4.8198235E-1,3.7356776E-1,-3.6786786E-1,-6.9487894E-1,1.3841464E-1,-2.4130009E-1,-2.8543256E-2,-3.2973465E-1,-4.323739E-1,-6.8958545E-1,-8.34382E-1,-9.7254777E-1,-4.7586283E-1,-7.0470226E-1],"split_indices":[36,32,22,56,52,20,56,32,36,30,44,14,33,20,34,0,0,0,0,0,0,0,0,0,0,0,0,0,0,0,0],"split_type":[0,0,0,0,0,0,0,0,0,0,0,0,0,0,0,0,0,0,0,0,0,0,0,0,0,0,0,0,0,0,0],"sum_hessian":[1.5444E4,1.1204E4,4.24E3,1.0268E4,9.36E2,1.816E3,2.424E3,6.795E3,3.473E3,6.15E2,3.21E2,6.94E2,1.122E3,1.375E3,1.049E3,2.94E3,3.855E3,1.579E3,1.894E3,5.04E2,1.11E2,2.32E2,8.9E1,3.08E2,3.86E2,8.31E2,2.91E2,7.56E2,6.19E2,1.21E2,9.28E2],"tree_param":{"num_deleted":"0","num_feature":"58","num_nodes":"31","size_leaf_vector":"1"}},{"base_weights":[-1.6748898E-2,9.22426E0,-2.8265604E1,1.17895975E1,-7.919178E0,-1.89048E1,-3.4467773E1,1.4010158E1,1.1424884E0,-1.7282911E1,6.1705394E0,-9.971648E0,-2.281472E1,-3.0895437E1,-3.9311165E1,4.035E-1,2.4136326E-1,1.0113473E-1,-2.3532942E-1,-3.7036005E-1,-7.5842094E-1,-3.8811877E-2,3.1452432E-1,3.6149547E-1,-2.7750644E-1,-4.7475532E-1,-7.284529E-1,-7.728623E-1,-6.397273E-1,-8.774894E-1,-9.8254293E-1],"categories":[],"categories_nodes":[],"categories_segments":[],"categories_sizes":[],"default_left":[0,0,0,0,0,0,0,0,0,0,0,0,0,0,0,0,0,0,0,0,0,0,0,0,0,0,0,0,0,0,0],"id":30,"left_children":[1,3,5,7,9,11,13,15,17,19,21,23,25,27,29,-1,-1,-1,-1,-1,-1,-1,-1,-1,-1,-1,-1,-1,-1,-1,-1],"loss_changes":[4.0201382E6,5.1042212E5,2.19734E5,2.3863188E5,1.9945642E5,5.268825E4,3.826925E4,1.01853625E5,6.3422258E4,1.7803531E4,3.506603E4,2.3837375E4,2.0533625E4,9.701875E3,2.726125E3,0E0,0E0,0E0,0E0,0E0,0E0,0E0,0E0,0E0,0E0,0E0,0E0,0E0,0E0,0E0,0E0],"parents":[2147483647,0,0,1,1,2,2,3,3,4,4,5,5,6,6,7,7,8,8,9,9,10,10,11,11,12,12,13,13,14,14],"right_children":[2,4,6,8,10,12,14,16,18,20,22,24,26,28,30,-1,-1,-1,-1,-1,-1,-1,-1,-1,-1,-1,-1,-1,-1,-1,-1],"split_conditions":[6.0484546E-1,2.1987645E-1,6.836248E-1,5.0249976E-1,5.6152123E-1,5.606277E-1,7.861152E-1,1.6287988E-1,2.0830402E-1,4.7238418E-1,7.5801665E-1,4.3661973E-1,3.443866E-1,3.0208215E-1,8.703184E-1,4.035E-1,2.4136326E-1,1.0113473E-1,-2.3532942E-1,-3.7036005E-1,-7.5842094E-1,-3.8811877E-2,3.1452432E-1,3.6149547E-1,-2.7750644E-1,-4.7475532E-1,-7.284529E-1,-7.728623E-1,-6.397273E-1,-8.774894E-1,-9.8254293E-1],"split_indices":[16,30,36,22,52,18,22,32,44,30,40,48,7,54,22,0,0,0,0,0,0,0,0,0,0,0,0,0,0,0,0],"split_type":[0,0,0,0,0,0,0,0,0,0,0,0,0,0,0,0,0,0,0,0,0,0,0,0,0,0,0,0,0,0,0],"sum_hessian":[1.5398E4,1.1603E4,3.795E3,1.0093E4,1.51E3,1.514E3,2.281E3,8.351E3,1.742E3,9.07E2,6.03E2,4.62E2,1.052E3,1.317E3,9.64E2,4.296E3,4.055E3,1.356E3,3.86E2,8.38E2,6.9E1,2.93E2,3.1E2,3.3E1,4.29E2,8.3E2,2.22E2,7.52E2,5.65E2,6.62E2,3.02E2],"tree_param":{"num_deleted":"0","num_feature":"58","num_nodes":"31","size_leaf_vector":"1"}},{"base_weights":[4.3544853E-3,9.497605E0,-2.6247131E1,1.333233E1,1.0676056E0,-1.3380622E1,-3.1736902E1,1.0878391E1,1.8902098E1,8.237717E0,-1.1465664E1,9.553358E0,-1.5914466E1,-2.576104E1,-3.6025696E1,4.3793556E-1,1.7452191E-1,4.424438E-1,3.81375E-2,2.8083035E-1,-4.50319E-2,-8.957582E-3,-3.1876352E-1,5.315288E-1,2.935895E-2,-2.887514E-1,-5.763518E-1,-5.476714E-1,-7.375187E-1,-7.765407E-1,-9.1331714E-1],"categories":[],"categories_nodes":[],"categories_segments":[],"categories_sizes":[],"default_left":[0,0,0,0,0,0,0,0,0,0,0,0,0,0,0,0,0,0,0,0,0,0,0,0,0,0,0,0,0,0,0],"id":31,"left_children":[1,3,5,7,9,11,13,15,17,19,21,23,25,27,29,-1,-1,-1,-1,-1,-1,-1,-1,-1,-1,-1,-1,-1,-1,-1,-1],"loss_changes":[3.8538132E6,3.6712044E5,2.8967E5,1.0648575E5,3.192947E5,7.1628766E4,7.2833E4,1.4537406E5,7.4639375E3,8.918653E4,3.2710031E4,1.3602412E4,3.3981062E4,1.48503125E4,1.294425E4,0E0,0E0,0E0,0E0,0E0,0E0,0E0,0E0,0E0,0E0,0E0,0E0,0E0,0E0,0E0,0E0],"parents":[2147483647,0,0,1,1,2,2,3,3,4,4,5,5,6,6,7,7,8,8,9,9,10,10,11,11,12,12,13,13,14,14],"right_children":[2,4,6,8,10,12,14,16,18,20,22,24,26,28,30,-1,-1,-1,-1,-1,-1,-1,-1,-1,-1,-1,-1,-1,-1,-1,-1],"split_conditions":[5.8336556E-1,4.3661973E-1,6.046693E-1,6.7114097E-1,1.7705064E-1,4.5774648E-1,7.083333E-1,1.334218E-1,2.4871346E-1,5.223214E-1,4.46065E-1,4.9219367E-1,2.8384593E-1,3.443866E-1,7.8034115E-1,4.3793556E-1,1.7452191E-1,4.424438E-1,3.81375E-2,2.8083035E-1,-4.50319E-2,-8.957582E-3,-3.1876352E-1,5.315288E-1,2.935895E-2,-2.887514E-1,-5.763518E-1,-5.476714E-1,-7.375187E-1,-7.765407E-1,-9.1331714E-1],"split_indices":[20,48,14,52,32,48,34,32,32,34,24,22,44,7,20,0,0,0,0,0,0,0,0,0,0,0,0,0,0,0,0],"split_type":[0,0,0,0,0,0,0,0,0,0,0,0,0,0,0,0,0,0,0,0,0,0,0,0,0,0,0,0,0,0,0],"sum_hessian":[1.5462E4,1.1356E4,4.106E3,7.805E3,3.551E3,1.229E3,2.877E3,5.42E3,2.385E3,2.259E3,1.292E3,1.22E2,1.107E3,1.205E3,1.672E3,1.597E3,3.823E3,2.36E3,2.5E1,1.636E3,6.23E2,2.21E2,1.071E3,4.6E1,7.6E1,8E2,3.07E2,8.94E2,3.11E2,9.61E2,7.11E2],"tree_param":{"num_deleted":"0","num_feature":"58","num_nodes":"31","size_leaf_vector":"1"}},{"base_weights":[-7.486859E-4,9.241038E0,-2.560886E1,1.1357873E1,-5.786016E0,-1.4576766E1,-3.1819382E1,2.8660226E0,1.3855494E1,-1.3483327E1,8.446995E0,-6.437895E0,-2.1761518E1,-2.7291195E1,-3.6396317E1,1.4587535E-1,-2.6040977E-1,4.3724012E-1,2.7423632E-1,-3.5580206E-1,-9.507471E-2,3.097224E-1,-1.2236781E-2,-3.273055E-2,-4.7142008E-1,-5.125212E-1,4.5614868E-1,-6.031983E-1,-8.3549815E-1,-7.808062E-1,-8.980192E-1],"categories":[],"categories_nodes":[],"categories_segments":[],"categories_sizes":[],"default_left":[0,0,0,0,0,0,0,0,0,0,0,0,0,0,0,0,0,0,0,0,0,0,0,0,0,0,0,0,0,0,0],"id":32,"left_children":[1,3,5,7,9,11,13,15,17,19,21,23,25,27,29,-1,-1,-1,-1,-1,-1,-1,-1,-1,-1,-1,-1,-1,-1,-1,-1],"loss_changes":[3.6500795E6,3.6056594E5,2.79763E5,2.1065475E5,1.5349217E5,8.611166E4,5.322375E4,1.0918565E5,7.7628E4,1.5831422E4,2.16983E4,4.8372695E4,1.1638156E4,1.375075E4,6.9435E3,0E0,0E0,0E0,0E0,0E0,0E0,0E0,0E0,0E0,0E0,0E0,0E0,0E0,0E0,0E0,0E0],"parents":[2147483647,0,0,1,1,2,2,3,3,4,4,5,5,6,6,7,7,8,8,9,9,10,10,11,11,12,12,13,13,14,14],"right_children":[2,4,6,8,10,12,14,16,18,20,22,24,26,28,30,-1,-1,-1,-1,-1,-1,-1,-1,-1,-1,-1,-1,-1,-1,-1,-1],"split_conditions":[5.8336556E-1,2.1987645E-1,6.056338E-1,4.8769575E-1,5.9731543E-1,6.0484546E-1,7.2529185E-1,1.7705064E-1,1.384924E-1,6.0855776E-1,2.4760439E-1,2.4429612E-1,5.381356E-1,4.5705825E-1,7.565763E-1,1.4587535E-1,-2.6040977E-1,4.3724012E-1,2.7423632E-1,-3.5580206E-1,-9.507471E-2,3.097224E-1,-1.2236781E-2,-3.273055E-2,-4.7142008E-1,-5.125212E-1,4.5614868E-1,-6.031983E-1,-8.3549815E-1,-7.808062E-1,-8.980192E-1],"split_indices":[20,30,48,52,52,16,14,32,32,54,30,42,50,7,18,0,0,0,0,0,0,0,0,0,0,0,0,0,0,0,0],"split_type":[0,0,0,0,0,0,0,0,0,0,0,0,0,0,0,0,0,0,0,0,0,0,0,0,0,0,0,0,0,0,0],"sum_hessian":[1.5421E4,1.1332E4,4.089E3,9.933E3,1.399E3,1.474E3,2.615E3,2.258E3,7.675E3,9.08E2,4.91E2,6.92E2,7.82E2,1.318E3,1.297E3,1.817E3,4.41E2,2.21E3,5.465E3,7.57E2,1.51E2,3.17E2,1.74E2,5.09E2,1.83E2,7.76E2,6E0,1.154E3,1.64E2,6.07E2,6.9E2],"tree_param":{"num_deleted":"0","num_feature":"58","num_nodes":"31","size_leaf_vector":"1"}},{"base_weights":[-3.177644E-2,9.814139E0,-2.2979362E1,1.2071139E1,-3.0267918E0,-1.1961824E1,-3.0298975E1,1.5149182E1,7.5724616E0,1.0956944E1,-1.3522677E1,-8.2190186E-1,-1.6084059E1,-2.466328E1,-3.4481133E1,5.0695837E-1,3.2576585E-1,2.8054595E-1,-8.702416E-2,3.24178E-1,-1.6522944E-1,-2.4575229E-1,-4.5763186E-1,2.0342997E-1,-3.2330745E-1,-5.174552E-1,-3.0979416E-1,-5.2858394E-1,-7.378158E-1,-7.4878025E-1,-8.812283E-1],"categories":[],"categories_nodes":[],"categories_segments":[],"categories_sizes":[],"default_left":[0,0,0,0,0,0,0,0,0,0,0,0,0,0,0,0,0,0,0,0,0,0,0,0,0,0,0,0,0,0,0],"id":33,"left_children":[1,3,5,7,9,11,13,15,17,19,21,23,25,27,29,-1,-1,-1,-1,-1,-1,-1,-1,-1,-1,-1,-1,-1,-1,-1,-1],"loss_changes":[3.4864798E6,3.1298406E5,3.732615E5,1.2705725E5,2.3718447E5,8.498728E4,6.4743E4,3.98985E4,1.9151028E5,3.802153E4,1.6559922E4,6.321825E4,2.2628938E4,1.51426875E4,1.1064625E4,0E0,0E0,0E0,0E0,0E0,0E0,0E0,0E0,0E0,0E0,0E0,0E0,0E0,0E0,0E0,0E0],"parents":[2147483647,0,0,1,1,2,2,3,3,4,4,5,5,6,6,7,7,8,8,9,9,10,10,11,11,12,12,13,13,14,14],"right_children":[2,4,6,8,10,12,14,16,18,20,22,24,26,28,30,-1,-1,-1,-1,-1,-1,-1,-1,-1,-1,-1,-1,-1,-1,-1,-1],"split_conditions":[5.4368037E-1,2.1540387E-1,6.342988E-1,4.077381E-1,3.481717E-1,5.6725144E-1,7.157738E-1,1.6941763E-1,1.6386704E-1,2.6748553E-1,5.4231536E-1,1.777411E-1,4.2552057E-1,3.8266176E-1,8.1994045E-1,5.0695837E-1,3.2576585E-1,2.8054595E-1,-8.702416E-2,3.24178E-1,-1.6522944E-1,-2.4575229E-1,-4.5763186E-1,2.0342997E-1,-3.2330745E-1,-5.174552E-1,-3.0979416E-1,-5.2858394E-1,-7.378158E-1,-7.4878025E-1,-8.812283E-1],"split_indices":[22,32,20,34,36,16,34,44,32,32,20,32,38,7,34,0,0,0,0,0,0,0,0,0,0,0,0,0,0,0,0],"split_type":[0,0,0,0,0,0,0,0,0,0,0,0,0,0,0,0,0,0,0,0,0,0,0,0,0,0,0,0,0,0,0],"sum_hessian":[1.5429E4,1.0797E4,4.632E3,9.183E3,1.614E3,1.85E3,2.782E3,5.451E3,3.732E3,6.92E2,9.22E2,5E2,1.35E3,1.188E3,1.594E3,7.63E2,4.688E3,2.666E3,1.066E3,5.93E2,9.9E1,6.29E2,2.93E2,2.89E2,2.11E2,4.08E2,9.42E2,9.46E2,2.42E2,9.91E2,6.03E2],"tree_param":{"num_deleted":"0","num_feature":"58","num_nodes":"31","size_leaf_vector":"1"}},{"base_weights":[-2.061768E-2,9.652023E0,-2.2485634E1,1.1684336E1,-4.4619584E0,-1.223038E1,-3.0185003E1,1.7501133E1,9.424516E0,8.882719E0,-1.3121728E1,-7.8547273E0,-2.1844248E1,-3.492425E1,-2.5897797E1,4.42254E-1,3.7283462E-1,3.3838555E-1,1.21771514E-1,2.8559628E-1,-1.4503706E-1,-2.1532E-1,-4.436645E-1,7.3042884E-2,-2.9047015E-1,-4.4403213E-1,-6.993771E-1,-7.460278E-1,-8.581827E-1,-6.22184E-1,-3.751487E-1],"categories":[],"categories_nodes":[],"categories_segments":[],"categories_sizes":[],"default_left":[0,0,0,0,0,0,0,0,0,0,0,0,0,0,0,0,0,0,0,0,0,0,0,0,0,0,0,0,0,0,0],"id":34,"left_children":[1,3,5,7,9,11,13,15,17,19,21,23,25,27,29,-1,-1,-1,-1,-1,-1,-1,-1,-1,-1,-1,-1,-1,-1,-1,-1],"loss_changes":[3.3643942E6,3.1049938E5,3.6757975E5,1.24199E5,1.5762734E5,8.396234E4,5.3162E4,5.608125E3,1.4697719E5,2.801021E4,1.8895469E4,7.082325E4,1.34224375E4,6.052E3,1.235E4,0E0,0E0,0E0,0E0,0E0,0E0,0E0,0E0,0E0,0E0,0E0,0E0,0E0,0E0,0E0,0E0],"parents":[2147483647,0,0,1,1,2,2,3,3,4,4,5,5,6,6,7,7,8,8,9,9,10,10,11,11,12,12,13,13,14,14],"right_children":[2,4,6,8,10,12,14,16,18,20,22,24,26,28,30,-1,-1,-1,-1,-1,-1,-1,-1,-1,-1,-1,-1,-1,-1,-1,-1],"split_conditions":[5.4368037E-1,2.1698132E-1,6.3095236E-1,2.9577464E-1,3.481717E-1,2.6731607E-1,2.5012416E-1,2.3688394E-1,1.4231977E-1,2.6426154E-1,5.3633195E-1,5.6725144E-1,4.2088968E-1,7.565763E-1,4.1264567E-1,4.42254E-1,3.7283462E-1,3.3838555E-1,1.21771514E-1,2.8559628E-1,-1.4503706E-1,-2.1532E-1,-4.436645E-1,7.3042884E-2,-2.9047015E-1,-4.4403213E-1,-6.993771E-1,-7.460278E-1,-8.581827E-1,-6.22184E-1,-3.751487E-1],"split_indices":[22,30,34,48,36,44,54,36,30,30,20,16,10,18,54,0,0,0,0,0,0,0,0,0,0,0,0,0,0,0,0],"split_type":[0,0,0,0,0,0,0,0,0,0,0,0,0,0,0,0,0,0,0,0,0,0,0,0,0,0,0,0,0,0,0],"sum_hessian":[1.5481E4,1.0822E4,4.659E3,9.46E3,1.362E3,1.999E3,2.66E3,2.645E3,6.815E3,5.36E2,8.26E2,1.375E3,6.24E2,1.26E3,1.4E3,1.248E3,1.397E3,3.042E3,3.773E3,4.37E2,9.9E1,5.06E2,3.2E2,4.1E2,9.65E2,4.74E2,1.5E2,5.52E2,7.08E2,1.275E3,1.25E2],"tree_param":{"num_deleted":"0","num_feature":"58","num_nodes":"31","size_leaf_vector":"1"}},{"base_weights":[-1.8317953E-2,8.283416E0,-2.525281E1,1.0548151E1,-6.9172297E0,-1.6965548E1,-3.0795536E1,1.2166433E1,-1.3243705E0,-1.5557728E1,5.7658453E0,-7.6120157E0,-2.0925089E1,-2.6739517E1,-3.417688E1,3.5865933E-1,2.0722307E-1,-3.7080264E-1,2.3365604E-2,-2.4273646E-1,-4.5058677E-1,-3.213472E-2,2.916653E-1,4.253811E-1,-2.2562534E-1,-4.4154367E-1,-6.818813E-1,-5.65919E-1,-6.80271E-1,-7.4408245E-1,-8.544649E-1],"categories":[],"categories_nodes":[],"categories_segments":[],"categories_sizes":[],"default_left":[0,0,0,0,0,0,0,0,0,0,0,0,0,0,0,0,0,0,0,0,0,0,0,0,0,0,0,0,0,0,0],"id":35,"left_children":[1,3,5,7,9,11,13,15,17,19,21,23,25,27,29,-1,-1,-1,-1,-1,-1,-1,-1,-1,-1,-1,-1,-1,-1,-1,-1],"loss_changes":[3.2429052E6,4.010605E5,1.75497E5,1.947985E5,1.6567731E5,5.6801625E4,3.05615E4,9.501675E4,4.165292E4,1.753211E4,2.9893928E4,2.5439734E4,1.66695E4,5.6383125E3,5.778625E3,0E0,0E0,0E0,0E0,0E0,0E0,0E0,0E0,0E0,0E0,0E0,0E0,0E0,0E0,0E0,0E0],"parents":[2147483647,0,0,1,1,2,2,3,3,4,4,5,5,6,6,7,7,8,8,9,9,10,10,11,11,12,12,13,13,14,14],"right_children":[2,4,6,8,10,12,14,16,18,20,22,24,26,28,30,-1,-1,-1,-1,-1,-1,-1,-1,-1,-1,-1,-1,-1,-1,-1,-1],"split_conditions":[6.0484546E-1,2.1987645E-1,6.836248E-1,5.0744045E-1,5.6152123E-1,5.810139E-1,7.315175E-1,1.5979438E-1,4.2725652E-1,5.3496265E-1,7.5801665E-1,4.851606E-1,3.822276E-1,7.157738E-1,7.947489E-1,3.5865933E-1,2.0722307E-1,-3.7080264E-1,2.3365604E-2,-2.4273646E-1,-4.5058677E-1,-3.213472E-2,2.916653E-1,4.253811E-1,-2.2562534E-1,-4.4154367E-1,-6.818813E-1,-5.65919E-1,-6.80271E-1,-7.4408245E-1,-8.544649E-1],"split_indices":[16,30,36,34,52,20,14,32,40,20,40,20,30,34,20,0,0,0,0,0,0,0,0,0,0,0,0,0,0,0,0],"split_type":[0,0,0,0,0,0,0,0,0,0,0,0,0,0,0,0,0,0,0,0,0,0,0,0,0,0,0,0,0,0,0],"sum_hessian":[1.5478E4,1.1647E4,3.831E3,1.0137E4,1.51E3,1.537E3,2.294E3,8.921E3,1.216E3,8.98E2,6.12E2,4.58E2,1.079E3,1.047E3,1.247E3,4.407E3,4.514E3,1.66E2,1.05E3,3.9E2,5.08E2,2.99E2,3.13E2,3.4E1,4.24E2,8.86E2,1.93E2,5.58E2,4.89E2,7.09E2,5.38E2],"tree_param":{"num_deleted":"0","num_feature":"58","num_nodes":"31","size_leaf_vector":"1"}},{"base_weights":[4.832284E-3,9.1892E0,-2.170168E1,1.1081701E1,-5.0823894E0,-1.1990885E1,-2.8854595E1,8.29071E0,1.5814957E1,7.96977E0,-1.2809441E1,-7.905074E0,-2.1432404E1,-3.2091354E1,-2.314256E1,3.5081345E-1,9.904089E-2,3.207574E-1,4.207397E-1,2.9282957E-1,-8.416427E-3,-3.461483E-1,-4.77497E-2,1.3593753E-1,-2.4344848E-1,-4.3497077E-1,-6.7843664E-1,-6.8215805E-1,-8.0779123E-1,-4.9145973E-1,-6.471858E-1],"categories":[],"categories_nodes":[],"categories_segments":[],"categories_sizes":[],"default_left":[0,0,0,0,0,0,0,0,0,0,0,0,0,0,0,0,0,0,0,0,0,0,0,0,0,0,0,0,0,0,0],"id":36,"left_children":[1,3,5,7,9,11,13,15,17,19,21,23,25,27,29,-1,-1,-1,-1,-1,-1,-1,-1,-1,-1,-1,-1,-1,-1,-1,-1],"loss_changes":[3.0831118E6,2.9356306E5,3.1903325E5,1.26623375E5,1.28490125E5,7.513141E4,4.819625E4,1.659351E5,1.61810625E4,1.8414293E4,1.8210734E4,4.880958E4,1.1768906E4,1.1356625E4,8.325625E3,0E0,0E0,0E0,0E0,0E0,0E0,0E0,0E0,0E0,0E0,0E0,0E0,0E0,0E0,0E0,0E0],"parents":[2147483647,0,0,1,1,2,2,3,3,4,4,5,5,6,6,7,7,8,8,9,9,10,10,11,11,12,12,13,13,14,14],"right_children":[2,4,6,8,10,12,14,16,18,20,22,24,26,28,30,-1,-1,-1,-1,-1,-1,-1,-1,-1,-1,-1,-1,-1,-1,-1,-1],"split_conditions":[5.4591703E-1,2.1987645E-1,6.3095236E-1,6.582617E-1,4.411931E-1,2.7665433E-1,2.95702E-1,1.2642004E-1,6.923937E-1,3.5373092E-1,5.816555E-1,4.9805447E-1,4.039716E-1,7.605634E-1,2.6748553E-1,3.5081345E-1,9.904089E-2,3.207574E-1,4.207397E-1,2.9282957E-1,-8.416427E-3,-3.461483E-1,-4.77497E-2,1.3593753E-1,-2.4344848E-1,-4.3497077E-1,-6.7843664E-1,-6.8215805E-1,-8.0779123E-1,-4.9145973E-1,-6.471858E-1],"split_indices":[22,30,34,54,20,44,54,32,52,24,52,14,30,48,32,0,0,0,0,0,0,0,0,0,0,0,0,0,0,0,0],"split_type":[0,0,0,0,0,0,0,0,0,0,0,0,0,0,0,0,0,0,0,0,0,0,0,0,0,0,0,0,0,0,0],"sum_hessian":[1.5463E4,1.0866E4,4.597E3,9.594E3,1.272E3,1.951E3,2.646E3,6.037E3,3.557E3,4.73E2,7.99E2,1.363E3,5.88E2,1.686E3,9.6E2,2.233E3,3.804E3,1.928E3,1.629E3,3.03E2,1.7E2,6.67E2,1.32E2,2.16E2,1.147E3,4.41E2,1.47E2,8.62E2,8.24E2,6.86E2,2.74E2],"tree_param":{"num_deleted":"0","num_feature":"58","num_nodes":"31","size_leaf_vector":"1"}},{"base_weights":[3.7691135E-2,8.958845E0,-2.1118254E1,1.1318234E1,-2.100232E0,-1.1566869E1,-2.8135794E1,1.3879639E1,6.6490893E0,1.1217926E1,-1.1215122E1,-7.3155723E0,-2.035967E1,-3.280429E1,-2.4294456E1,4.3696392E-1,2.8969267E-1,2.3555754E-1,-1.418362E-1,3.0886677E-1,-1.6419281E-1,-1.9124271E-1,-3.9453873E-1,1.2827267E-1,-2.3392636E-1,-4.1193885E-1,-6.565932E-1,-7.1324396E-1,-8.1649387E-1,-5.840995E-1,-3.3644572E-1],"categories":[],"categories_nodes":[],"categories_segments":[],"categories_sizes":[],"default_left":[0,0,0,0,0,0,0,0,0,0,0,0,0,0,0,0,0,0,0,0,0,0,0,0,0,0,0,0,0,0,0],"id":37,"left_children":[1,3,5,7,9,11,13,15,17,19,21,23,25,27,29,-1,-1,-1,-1,-1,-1,-1,-1,-1,-1,-1,-1,-1,-1,-1,-1],"loss_changes":[2.922569E6,2.8422494E5,3.075305E5,1.0726875E5,2.3271586E5,7.2631484E4,4.6672375E4,3.962275E4,1.4270797E5,3.009664E4,1.9446594E4,4.689689E4,1.25766875E4,4.78525E3,1.2450125E4,0E0,0E0,0E0,0E0,0E0,0E0,0E0,0E0,0E0,0E0,0E0,0E0,0E0,0E0,0E0,0E0],"parents":[2147483647,0,0,1,1,2,2,3,3,4,4,5,5,6,6,7,7,8,8,9,9,10,10,11,11,12,12,13,13,14,14],"right_children":[2,4,6,8,10,12,14,16,18,20,22,24,26,28,30,-1,-1,-1,-1,-1,-1,-1,-1,-1,-1,-1,-1,-1,-1,-1,-1],"split_conditions":[5.4591703E-1,2.051154E-1,6.3095236E-1,4.2410713E-1,3.6986968E-1,2.3529792E-1,2.4355301E-1,1.342741E-1,1.6882977E-1,2.6748553E-1,5.3633195E-1,5.0272375E-1,4.2088968E-1,7.947489E-1,4.1264567E-1,4.3696392E-1,2.8969267E-1,2.3555754E-1,-1.418362E-1,3.0886677E-1,-1.6419281E-1,-1.9124271E-1,-3.9453873E-1,1.2827267E-1,-2.3392636E-1,-4.1193885E-1,-6.565932E-1,-7.1324396E-1,-8.1649387E-1,-5.840995E-1,-3.3644572E-1],"split_indices":[22,30,34,34,24,32,54,32,32,32,20,14,10,20,54,0,0,0,0,0,0,0,0,0,0,0,0,0,0,0,0],"split_type":[0,0,0,0,0,0,0,0,0,0,0,0,0,0,0,0,0,0,0,0,0,0,0,0,0,0,0,0,0,0,0],"sum_hessian":[1.5483E4,1.0891E4,4.592E3,8.976E3,1.915E3,1.946E3,2.646E3,5.795E3,3.181E3,7.78E2,1.137E3,1.313E3,6.33E2,1.191E3,1.455E3,1.26E3,4.535E3,2.495E3,6.86E2,6.98E2,8E1,7.54E2,3.83E2,2.33E2,1.08E3,4.8E2,1.53E2,6.53E2,5.38E2,1.331E3,1.24E2],"tree_param":{"num_deleted":"0","num_feature":"58","num_nodes":"31","size_leaf_vector":"1"}},{"base_weights":[3.221977E-2,8.458285E0,-2.150496E1,9.873661E0,-1.1161248E1,-1.1301632E1,-2.7016542E1,3.5864208E0,1.2277422E1,-8.802295E-1,-1.5330189E1,-2.0614195E1,-7.808676E0,-2.2615759E1,-3.1370075E1,2.357168E-1,-1.2311028E-1,2.3787002E-1,3.862885E-1,1.8798701E-1,-1.0176375E-1,-2.9062963E-1,-5.545405E-1,-5.522088E-1,-2.846089E-1,-5.1822715E-2,-3.5158458E-1,-5.0646883E-1,-7.467014E-1,-6.7549163E-1,-7.9050773E-1],"categories":[],"categories_nodes":[],"categories_segments":[],"categories_sizes":[],"default_left":[0,0,0,0,0,0,0,0,0,0,0,0,0,0,0,0,0,0,0,0,0,0,0,0,0,0,0,0,0,0,0],"id":38,"left_children":[1,3,5,7,9,11,13,15,17,19,21,23,25,27,29,-1,-1,-1,-1,-1,-1,-1,-1,-1,-1,-1,-1,-1,-1,-1,-1],"loss_changes":[2.793606E6,3.0737425E5,2.431425E5,1.5593744E5,3.1917922E4,4.928217E4,5.312725E4,1.6726494E5,6.586425E4,6.848945E3,1.24205E4,1.0769297E4,4.535304E4,9.6440625E3,7.596375E3,0E0,0E0,0E0,0E0,0E0,0E0,0E0,0E0,0E0,0E0,0E0,0E0,0E0,0E0,0E0,0E0],"parents":[2147483647,0,0,1,1,2,2,3,3,4,4,5,5,6,6,7,7,8,8,9,9,10,10,11,11,12,12,13,13,14,14],"right_children":[2,4,6,8,10,12,14,16,18,20,22,24,26,28,30,-1,-1,-1,-1,-1,-1,-1,-1,-1,-1,-1,-1,-1,-1,-1,-1],"split_conditions":[5.3869045E-1,2.5143218E-1,6.3072664E-1,5.3177965E-1,4.692942E-1,4.2925787E-1,7.143969E-1,1.5711342E-1,6.7114097E-1,2.7106392E-1,3.9377752E-1,3.8640076E-1,2.0830402E-1,4.9189803E-1,7.631579E-1,2.357168E-1,-1.2311028E-1,2.3787002E-1,3.862885E-1,1.8798701E-1,-1.0176375E-1,-2.9062963E-1,-5.545405E-1,-5.522088E-1,-2.846089E-1,-5.1822715E-2,-3.5158458E-1,-5.0646883E-1,-7.467014E-1,-6.7549163E-1,-7.9050773E-1],"split_indices":[34,32,20,50,20,38,14,32,52,41,30,49,44,10,46,0,0,0,0,0,0,0,0,0,0,0,0,0,0,0,0],"split_type":[0,0,0,0,0,0,0,0,0,0,0,0,0,0,0,0,0,0,0,0,0,0,0,0,0,0,0,0,0,0,0],"sum_hessian":[1.5392E4,1.1064E4,4.328E3,1.032E4,7.44E2,1.519E3,2.809E3,2.855E3,7.465E3,2.15E2,5.29E2,4.13E2,1.106E3,1.4E3,1.409E3,1.641E3,1.214E3,5.115E3,2.35E3,6E1,1.55E2,4.01E2,1.28E2,2.97E2,1.16E2,6.3E2,4.76E2,1.299E3,1.01E2,7.81E2,6.28E2],"tree_param":{"num_deleted":"0","num_feature":"58","num_nodes":"31","size_leaf_vector":"1"}},{"base_weights":[-2.2576839E-2,7.962573E0,-2.206376E1,1.156954E1,1.2335664E0,-1.13305E1,-2.6623142E1,9.437432E0,1.615341E1,5.859209E0,-1.00447645E1,9.640536E0,-1.3259085E1,-2.1775938E1,-3.0050379E1,3.588185E-1,1.401877E-1,3.2388714E-1,4.0440372E-1,2.1675761E-1,-7.144339E-2,-3.3398417E-1,-9.2431955E-2,3.621533E-1,-1.1467234E-1,-2.3309453E-1,-4.652863E-1,-4.798262E-1,-7.018109E-1,-6.427419E-1,-7.592509E-1],"categories":[],"categories_nodes":[],"categories_segments":[],"categories_sizes":[],"default_left":[0,0,0,0,0,0,0,0,0,0,0,0,0,0,0,0,0,0,0,0,0,0,0,0,0,0,0,0,0,0,0],"id":39,"left_children":[1,3,5,7,9,11,13,15,17,19,21,23,25,27,29,-1,-1,-1,-1,-1,-1,-1,-1,-1,-1,-1,-1,-1,-1,-1,-1],"loss_changes":[2.722049E6,2.7553788E5,2.0097625E5,7.208206E4,2.0680669E5,4.9793562E4,4.7289375E4,1.0326066E5,6.3596875E3,8.774911E4,3.0403773E4,9.149645E3,2.4353016E4,1.03681875E4,9.691375E3,0E0,0E0,0E0,0E0,0E0,0E0,0E0,0E0,0E0,0E0,0E0,0E0,0E0,0E0,0E0,0E0],"parents":[2147483647,0,0,1,1,2,2,3,3,4,4,5,5,6,6,7,7,8,8,9,9,10,10,11,11,12,12,13,13,14,14],"right_children":[2,4,6,8,10,12,14,16,18,20,22,24,26,28,30,-1,-1,-1,-1,-1,-1,-1,-1,-1,-1,-1,-1,-1,-1,-1,-1],"split_conditions":[5.8336556E-1,4.7463623E-1,6.046693E-1,6.7114097E-1,1.8822378E-1,4.2105263E-1,7.083333E-1,1.4288044E-1,8.0700713E-1,5.0744045E-1,4.9888143E-1,1.9376878E-1,2.5898495E-1,4.611415E-1,7.7379215E-1,3.588185E-1,1.401877E-1,3.2388714E-1,4.0440372E-1,2.1675761E-1,-7.144339E-2,-3.3398417E-1,-9.2431955E-2,3.621533E-1,-1.1467234E-1,-2.3309453E-1,-4.652863E-1,-4.798262E-1,-7.018109E-1,-6.427419E-1,-7.592509E-1],"split_indices":[20,18,14,52,30,46,34,30,40,34,52,42,42,10,20,0,0,0,0,0,0,0,0,0,0,0,0,0,0,0,0],"split_type":[0,0,0,0,0,0,0,0,0,0,0,0,0,0,0,0,0,0,0,0,0,0,0,0,0,0,0,0,0,0,0],"sum_hessian":[1.5464E4,1.1352E4,4.112E3,7.39E3,3.962E3,1.227E3,2.885E3,5.046E3,2.344E3,2.81E3,1.152E3,1.03E2,1.124E3,1.198E3,1.687E3,1.813E3,3.233E3,8.75E2,1.469E3,2.021E3,7.89E2,6.69E2,4.83E2,7.3E1,3E1,7.66E2,3.58E2,1.066E3,1.32E2,9.12E2,7.75E2],"tree_param":{"num_deleted":"0","num_feature":"58","num_nodes":"31","size_leaf_vector":"1"}},{"base_weights":[-4.1319173E-2,7.364974E0,-2.2511576E1,9.463797E0,-6.086097E0,-1.641665E1,-2.837316E1,1.1457137E1,1.1388086E0,-1.2591024E1,7.485249E0,-7.1457305E0,-1.9493134E1,-3.1591257E1,-2.570497E1,3.603118E-1,2.1726473E-1,-3.274014E-1,6.204784E-2,-1.8429695E-1,-4.0309075E-1,3.3996618E-1,6.823311E-2,4.0058535E-1,-2.0934263E-1,-4.1143987E-1,-5.938017E-1,-7.0252585E-1,-7.9661775E-1,-5.6308705E-1,-6.886508E-1],"categories":[],"categories_nodes":[],"categories_segments":[],"categories_sizes":[],"default_left":[0,0,0,0,0,0,0,0,0,0,0,0,0,0,0,0,0,0,0,0,0,0,0,0,0,0,0,0,0,0,0],"id":40,"left_children":[1,3,5,7,9,11,13,15,17,19,21,23,25,27,29,-1,-1,-1,-1,-1,-1,-1,-1,-1,-1,-1,-1,-1,-1,-1,-1],"loss_changes":[2.5712085E6,3.281067E5,1.3636462E5,1.6679519E5,1.3860655E5,5.348175E4,1.5940125E4,6.894325E4,4.562811E4,2.3479531E4,1.6553484E4,2.1782645E4,1.4624375E4,2.100125E3,5.3533125E3,0E0,0E0,0E0,0E0,0E0,0E0,0E0,0E0,0E0,0E0,0E0,0E0,0E0,0E0,0E0,0E0],"parents":[2147483647,0,0,1,1,2,2,3,3,4,4,5,5,6,6,7,7,8,8,9,9,10,10,11,11,12,12,13,13,14,14],"right_children":[2,4,6,8,10,12,14,16,18,20,22,24,26,28,30,-1,-1,-1,-1,-1,-1,-1,-1,-1,-1,-1,-1,-1,-1,-1,-1],"split_conditions":[6.0484546E-1,2.1836773E-1,6.860119E-1,4.961407E-1,5.9731543E-1,5.810139E-1,2.2881356E-1,1.4124939E-1,4.2725652E-1,5.3496265E-1,2.7697173E-1,4.837615E-1,3.443866E-1,8.703184E-1,3.4296462E-1,3.603118E-1,2.1726473E-1,-3.274014E-1,6.204784E-2,-1.8429695E-1,-4.0309075E-1,3.3996618E-1,6.823311E-2,4.0058535E-1,-2.0934263E-1,-4.1143987E-1,-5.938017E-1,-7.0252585E-1,-7.9661775E-1,-5.6308705E-1,-6.886508E-1],"split_indices":[16,30,34,22,52,20,50,30,40,20,42,20,7,22,29,0,0,0,0,0,0,0,0,0,0,0,0,0,0,0,0],"split_type":[0,0,0,0,0,0,0,0,0,0,0,0,0,0,0,0,0,0,0,0,0,0,0,0,0,0,0,0,0,0,0],"sum_hessian":[1.5448E4,1.1619E4,3.829E3,1.0051E4,1.568E3,1.879E3,1.95E3,8.109E3,1.942E3,1.06E3,5.08E2,4.69E2,1.41E3,8.79E2,1.071E3,2.739E3,5.37E3,1.77E2,1.765E3,5.4E2,5.2E2,1.96E2,3.12E2,3.3E1,4.36E2,1.1E3,3.1E2,6.08E2,2.71E2,7.96E2,2.75E2],"tree_param":{"num_deleted":"0","num_feature":"58","num_nodes":"31","size_leaf_vector":"1"}},{"base_weights":[-3.3778697E-2,7.6252947E0,-2.0928196E1,1.1018012E1,1.364163E0,-1.0728753E1,-2.5466228E1,8.721046E0,1.5284628E1,5.615723E0,-1.0270025E1,9.513657E0,-1.2910202E1,-2.228064E1,-3.014302E1,3.534934E-1,1.2146494E-1,3.6060292E-1,-5.977747E-2,-1.8794446E-1,1.7103493E-1,-3.3314028E-1,-1.0796882E-1,3.5705593E-1,-1.5525708E-1,7.1987584E-2,-3.3037516E-1,-4.9664205E-1,-7.219292E-1,-6.479065E-1,-7.3765314E-1],"categories":[],"categories_nodes":[],"categories_segments":[],"categories_sizes":[],"default_left":[0,0,0,0,0,0,0,0,0,0,0,0,0,0,0,0,0,0,0,0,0,0,0,0,0,0,0,0,0,0,0],"id":41,"left_children":[1,3,5,7,9,11,13,15,17,19,21,23,25,27,29,-1,-1,-1,-1,-1,-1,-1,-1,-1,-1,-1,-1,-1,-1,-1,-1],"loss_changes":[2.4747322E6,2.4036231E5,1.9171875E5,7.1790875E4,1.968233E5,5.660061E4,4.2086625E4,1.0838041E5,1.2394375E4,7.050137E4,2.4438875E4,1.2032805E4,2.48315E4,1.23491875E4,3.3775E3,0E0,0E0,0E0,0E0,0E0,0E0,0E0,0E0,0E0,0E0,0E0,0E0,0E0,0E0,0E0,0E0],"parents":[2147483647,0,0,1,1,2,2,3,3,4,4,5,5,6,6,7,7,8,8,9,9,10,10,11,11,12,12,13,13,14,14],"right_children":[2,4,6,8,10,12,14,16,18,20,22,24,26,28,30,-1,-1,-1,-1,-1,-1,-1,-1,-1,-1,-1,-1,-1,-1,-1,-1],"split_conditions":[5.8336556E-1,4.7463623E-1,6.077821E-1,7.2477067E-1,1.9491644E-1,4.5774648E-1,7.6716954E-1,1.4174515E-1,3.0531853E-1,4.6140352E-1,4.9888143E-1,1.5752935E-1,8.406426E-2,4.9189803E-1,7.8034115E-1,3.534934E-1,1.2146494E-1,3.6060292E-1,-5.977747E-2,-1.8794446E-1,1.7103493E-1,-3.3314028E-1,-1.0796882E-1,3.5705593E-1,-1.5525708E-1,7.1987584E-2,-3.3037516E-1,-4.9664205E-1,-7.219292E-1,-6.479065E-1,-7.3765314E-1],"split_indices":[20,18,14,28,32,48,22,32,44,26,52,30,32,10,20,0,0,0,0,0,0,0,0,0,0,0,0,0,0,0,0],"split_type":[0,0,0,0,0,0,0,0,0,0,0,0,0,0,0,0,0,0,0,0,0,0,0,0,0,0,0,0,0,0,0],"sum_hessian":[1.5462E4,1.1315E4,4.147E3,7.338E3,3.977E3,1.278E3,2.869E3,4.772E3,2.566E3,2.913E3,1.064E3,1.24E2,1.154E3,1.71E3,1.159E3,1.659E3,3.113E3,2.528E3,3.8E1,3.31E2,2.582E3,6.14E2,4.5E2,9.1E1,3.3E1,8.9E1,1.065E3,1.562E3,1.48E2,5.09E2,6.5E2],"tree_param":{"num_deleted":"0","num_feature":"58","num_nodes":"31","size_leaf_vector":"1"}},{"base_weights":[4.3772906E-2,7.119505E0,-2.1633219E1,8.682837E0,-9.68757E0,-1.6511303E1,-2.7924673E1,1.5147401E0,1.0909144E1,-1.4841274E1,1.0980738E0,-7.089979E0,-1.9170023E1,-2.5811722E1,-3.0683825E1,1.3058771E-1,-1.8044212E-1,3.6191475E-1,2.1107726E-1,-2.3492534E-1,-4.320025E-1,1.0136046E-1,-2.3483253E-1,3.8215357E-1,-2.0574114E-1,-4.131195E-1,-5.9040785E-1,-5.734882E-1,-7.119707E-1,-6.8413234E-1,-7.685651E-1],"categories":[],"categories_nodes":[],"categories_segments":[],"categories_sizes":[],"default_left":[0,0,0,0,0,0,0,0,0,0,0,0,0,0,0,0,0,0,0,0,0,0,0,0,0,0,0,0,0,0,0],"id":42,"left_children":[1,3,5,7,9,11,13,15,17,19,21,23,25,27,29,-1,-1,-1,-1,-1,-1,-1,-1,-1,-1,-1,-1,-1,-1,-1,-1],"loss_changes":[2.3727982E6,3.065297E5,1.22216875E5,1.7027544E5,5.521321E4,5.2491312E4,9.15975E3,9.691276E4,6.8939125E4,1.1810094E4,1.1880161E4,1.9663736E4,1.34769375E4,4.3645E3,1.1520625E3,0E0,0E0,0E0,0E0,0E0,0E0,0E0,0E0,0E0,0E0,0E0,0E0,0E0,0E0,0E0,0E0],"parents":[2147483647,0,0,1,1,2,2,3,3,4,4,5,5,6,6,7,7,8,8,9,9,10,10,11,11,12,12,13,13,14,14],"right_children":[2,4,6,8,10,12,14,16,18,20,22,24,26,28,30,-1,-1,-1,-1,-1,-1,-1,-1,-1,-1,-1,-1,-1,-1,-1,-1],"split_conditions":[6.0484546E-1,2.4243994E-1,7.083333E-1,5.1059324E-1,5.6152123E-1,5.810139E-1,8.0654764E-1,2.0605513E-1,1.384924E-1,5.451433E-1,3.4476414E-1,4.837615E-1,3.822276E-1,4.9096802E-1,8.8079995E-1,1.3058771E-1,-1.8044212E-1,3.6191475E-1,2.1107726E-1,-2.3492534E-1,-4.320025E-1,1.0136046E-1,-2.3483253E-1,3.8215357E-1,-2.0574114E-1,-4.131195E-1,-5.9040785E-1,-5.734882E-1,-7.119707E-1,-6.8413234E-1,-7.685651E-1],"split_indices":[16,32,34,50,52,20,34,44,32,20,44,20,30,30,22,0,0,0,0,0,0,0,0,0,0,0,0,0,0,0,0],"split_type":[0,0,0,0,0,0,0,0,0,0,0,0,0,0,0,0,0,0,0,0,0,0,0,0,0,0,0,0,0,0,0],"sum_hessian":[1.5468E4,1.1662E4,3.806E3,1.067E4,9.92E2,2.1E3,1.706E3,2.529E3,8.141E3,6.71E2,3.21E2,4.63E2,1.637E3,9.72E2,7.34E2,1.753E3,7.76E2,2.256E3,5.885E3,3.01E2,3.7E2,2.49E2,7.2E1,3.2E1,4.31E2,1.351E3,2.86E2,8.02E2,1.7E2,5.06E2,2.28E2],"tree_param":{"num_deleted":"0","num_feature":"58","num_nodes":"31","size_leaf_vector":"1"}},{"base_weights":[4.0487932E-5,7.7007055E0,-1.8885498E1,9.107187E0,-8.344416E0,-9.938697E0,-2.4311626E1,6.604128E0,1.3798011E1,1.9978911E0,-1.3126336E1,-1.7877438E1,-6.255533E0,-2.7288858E1,-1.9281345E1,3.2593918E-1,6.280612E-2,3.722564E-1,2.755177E-1,1.3839754E-1,-1.3541846E-1,-2.2954065E-1,-4.6936086E-1,-4.8290637E-1,-2.3839378E-1,-2.715927E-2,-3.231769E-1,-5.8476067E-1,-6.9779444E-1,-3.981228E-1,-5.2617043E-1],"categories":[],"categories_nodes":[],"categories_segments":[],"categories_sizes":[],"default_left":[0,0,0,0,0,0,0,0,0,0,0,0,0,0,0,0,0,0,0,0,0,0,0,0,0,0,0,0,0,0,0],"id":43,"left_children":[1,3,5,7,9,11,13,15,17,19,21,23,25,27,29,-1,-1,-1,-1,-1,-1,-1,-1,-1,-1,-1,-1,-1,-1,-1,-1],"loss_changes":[2.2493845E6,2.4802144E5,2.1724662E5,1.1852069E5,4.3844324E4,4.9390938E4,4.122775E4,1.91286E5,1.50005E4,8.783463E3,1.371418E4,1.1802609E4,4.5223207E4,9.393E3,7.098625E3,0E0,0E0,0E0,0E0,0E0,0E0,0E0,0E0,0E0,0E0,0E0,0E0,0E0,0E0,0E0,0E0],"parents":[2147483647,0,0,1,1,2,2,3,3,4,4,5,5,6,6,7,7,8,8,9,9,10,10,11,11,12,12,13,13,14,14],"right_children":[2,4,6,8,10,12,14,16,18,20,22,24,26,28,30,-1,-1,-1,-1,-1,-1,-1,-1,-1,-1,-1,-1,-1,-1,-1,-1],"split_conditions":[5.342262E-1,2.4243994E-1,6.342988E-1,6.5250236E-1,4.621201E-1,4.39402E-1,3.0208215E-1,1.2642004E-1,2.4562798E-1,3.518627E-1,3.855403E-1,3.8640076E-1,1.8875079E-1,7.746479E-1,2.6349914E-1,3.2593918E-1,6.280612E-2,3.722564E-1,2.755177E-1,1.3839754E-1,-1.3541846E-1,-2.2954065E-1,-4.6936086E-1,-4.8290637E-1,-2.3839378E-1,-2.715927E-2,-3.231769E-1,-5.8476067E-1,-6.9779444E-1,-3.981228E-1,-5.2617043E-1],"split_indices":[34,32,20,56,20,38,54,32,36,41,10,49,32,48,32,0,0,0,0,0,0,0,0,0,0,0,0,0,0,0,0],"split_type":[0,0,0,0,0,0,0,0,0,0,0,0,0,0,0,0,0,0,0,0,0,0,0,0,0,0,0,0,0,0,0],"sum_hessian":[1.5465E4,1.0986E4,4.479E3,1.0101E4,8.85E2,1.692E3,2.787E3,6.588E3,3.513E3,2.8E2,6.05E2,5.35E2,1.157E3,1.748E3,1.039E3,2.26E3,4.328E3,1.608E3,1.905E3,1.86E2,9.4E1,4.18E2,1.87E2,3.84E2,1.51E2,6.97E2,4.6E2,1.013E3,7.35E2,6.46E2,3.93E2],"tree_param":{"num_deleted":"0","num_feature":"58","num_nodes":"31","size_leaf_vector":"1"}},{"base_weights":[3.790366E-2,6.788222E0,-2.0611074E1,8.689016E0,-6.0107603E0,-1.4341305E1,-2.5395905E1,1.0967037E1,2.6313875E0,5.2890654E0,-1.24901285E1,-6.6032214E0,-1.7371056E1,-2.273045E1,-2.8650707E1,2.1195391E-1,3.4013435E-1,1.3686047E-1,-1.8033844E-1,-5.0643325E-2,2.4879007E-1,-2.4150978E-1,-4.6006057E-1,3.671577E-1,-1.9220315E-1,-3.6961898E-1,-5.4753655E-1,-5.0927764E-1,-6.797462E-1,-6.3716614E-1,-7.208869E-1],"categories":[],"categories_nodes":[],"categories_segments":[],"categories_sizes":[],"default_left":[0,0,0,0,0,0,0,0,0,0,0,0,0,0,0,0,0,0,0,0,0,0,0,0,0,0,0,0,0,0,0],"id":44,"left_children":[1,3,5,7,9,11,13,15,17,19,21,23,25,27,29,-1,-1,-1,-1,-1,-1,-1,-1,-1,-1,-1,-1,-1,-1,-1,-1],"loss_changes":[2.1589685E6,2.840357E5,1.14115125E5,1.4022825E5,1.1062183E5,3.8662406E4,1.8113875E4,4.978825E4,9.469947E4,2.2433467E4,1.4427906E4,1.7811914E4,1.02205625E4,5.36325E3,1.9128125E3,0E0,0E0,0E0,0E0,0E0,0E0,0E0,0E0,0E0,0E0,0E0,0E0,0E0,0E0,0E0,0E0],"parents":[2147483647,0,0,1,1,2,2,3,3,4,4,5,5,6,6,7,7,8,8,9,9,10,10,11,11,12,12,13,13,14,14],"right_children":[2,4,6,8,10,12,14,16,18,20,22,24,26,28,30,-1,-1,-1,-1,-1,-1,-1,-1,-1,-1,-1,-1,-1,-1,-1,-1],"split_conditions":[6.0484546E-1,2.1987645E-1,6.7647576E-1,4.6868697E-1,4.5685112E-1,5.810139E-1,7.861152E-1,7.22183E-1,2.0660232E-1,7.383876E-1,3.782124E-1,4.837615E-1,3.7202707E-1,4.9096802E-1,8.703184E-1,2.1195391E-1,3.4013435E-1,1.3686047E-1,-1.8033844E-1,-5.0643325E-2,2.4879007E-1,-2.4150978E-1,-4.6006057E-1,3.671577E-1,-1.9220315E-1,-3.6961898E-1,-5.4753655E-1,-5.0927764E-1,-6.797462E-1,-6.3716614E-1,-7.208869E-1],"split_indices":[16,30,22,22,20,20,22,28,44,38,10,20,42,30,22,0,0,0,0,0,0,0,0,0,0,0,0,0,0,0,0],"split_type":[0,0,0,0,0,0,0,0,0,0,0,0,0,0,0,0,0,0,0,0,0,0,0,0,0,0,0,0,0,0,0],"sum_hessian":[1.5487E4,1.1672E4,3.815E3,1.0163E4,1.509E3,1.653E3,2.162E3,7.385E3,2.778E3,5.5E2,9.59E2,4.66E2,1.187E3,1.193E3,9.69E2,4.95E3,2.435E3,2.114E3,6.64E2,2.32E2,3.18E2,7.5E2,2.09E2,3.2E1,4.34E2,9.69E2,2.18E2,1.073E3,1.2E2,6.64E2,3.05E2],"tree_param":{"num_deleted":"0","num_feature":"58","num_nodes":"31","size_leaf_vector":"1"}},{"base_weights":[-1.3429001E-2,6.587373E0,-2.0135756E1,8.456083E0,-5.968833E0,-1.4723754E1,-2.5353458E1,1.1154814E1,3.253459E0,7.0970097E0,-1.1497696E1,-7.024677E0,-1.7292418E1,-2.825561E1,-2.3006088E1,2.1589796E-1,3.3279377E-1,2.2967479E-1,-1.792778E-2,2.3600017E-1,-8.403334E-2,-1.7042716E-1,-3.687339E-1,4.3322796E-1,-1.9866021E-1,-3.6401695E-1,-5.3231907E-1,-6.1747706E-1,-6.953897E-1,-5.027001E-1,-6.220772E-1],"categories":[],"categories_nodes":[],"categories_segments":[],"categories_sizes":[],"default_left":[0,0,0,0,0,0,0,0,0,0,0,0,0,0,0,0,0,0,0,0,0,0,0,0,0,0,0,0,0,0,0],"id":45,"left_children":[1,3,5,7,9,11,13,15,17,19,21,23,25,27,29,-1,-1,-1,-1,-1,-1,-1,-1,-1,-1,-1,-1,-1,-1,-1,-1],"loss_changes":[2.0525212E6,2.7307656E5,1.07411875E5,1.4217969E5,1.0901839E5,3.6978938E4,1.2579625E4,3.9181125E4,9.273058E4,1.48761E4,1.9253844E4,1.8860732E4,1.2320094E4,1.637625E3,4.8798125E3,0E0,0E0,0E0,0E0,0E0,0E0,0E0,0E0,0E0,0E0,0E0,0E0,0E0,0E0,0E0,0E0],"parents":[2147483647,0,0,1,1,2,2,3,3,4,4,5,5,6,6,7,7,8,8,9,9,10,10,11,11,12,12,13,13,14,14],"right_children":[2,4,6,8,10,12,14,16,18,20,22,24,26,28,30,-1,-1,-1,-1,-1,-1,-1,-1,-1,-1,-1,-1,-1,-1,-1,-1],"split_conditions":[6.0484546E-1,2.1987645E-1,6.860119E-1,4.7663337E-1,3.4022257E-1,5.810139E-1,2.2881356E-1,7.22183E-1,1.2642004E-1,2.56932E-1,5.3496265E-1,1.8781023E-1,3.443866E-1,8.487886E-1,3.4407753E-1,2.1589796E-1,3.3279377E-1,2.2967479E-1,-1.792778E-2,2.3600017E-1,-8.403334E-2,-1.7042716E-1,-3.687339E-1,4.3322796E-1,-1.9866021E-1,-3.6401695E-1,-5.3231907E-1,-6.1747706E-1,-6.953897E-1,-5.027001E-1,-6.220772E-1],"split_indices":[16,30,34,18,36,20,50,28,32,30,20,21,7,16,29,0,0,0,0,0,0,0,0,0,0,0,0,0,0,0,0],"split_type":[0,0,0,0,0,0,0,0,0,0,0,0,0,0,0,0,0,0,0,0,0,0,0,0,0,0,0,0,0,0,0],"sum_hessian":[1.5451E4,1.1635E4,3.816E3,1.0128E4,1.507E3,1.875E3,1.941E3,6.668E3,3.46E3,4.48E2,1.059E3,4.7E2,1.405E3,8.63E2,1.078E3,4.234E3,2.434E3,1.304E3,2.156E3,3.48E2,1E2,5.47E2,5.12E2,2.6E1,4.44E2,1.1E3,3.05E2,4.55E2,4.08E2,8.06E2,2.72E2],"tree_param":{"num_deleted":"0","num_feature":"58","num_nodes":"31","size_leaf_vector":"1"}},{"base_weights":[-5.9018318E-2,7.029425E0,-1.8009375E1,9.198375E0,-2.620206E0,-9.614624E0,-2.2699947E1,1.1428503E1,5.0488663E0,9.236033E0,-1.0094757E1,-5.2947445E0,-1.4893775E1,-1.902974E1,-2.6163378E1,3.9374903E-1,2.3708886E-1,2.375022E-1,-5.8340564E-2,2.9559886E-1,4.785246E-2,-1.9482523E-1,-4.4223365E-1,-2.2567637E-2,-3.1526166E-1,2.2347757E-1,-3.596531E-1,-4.250056E-1,-6.395889E-1,-5.624977E-1,-6.5978175E-1],"categories":[],"categories_nodes":[],"categories_segments":[],"categories_sizes":[],"default_left":[0,0,0,0,0,0,0,0,0,0,0,0,0,0,0,0,0,0,0,0,0,0,0,0,0,0,0,0,0,0,0],"id":46,"left_children":[1,3,5,7,9,11,13,15,17,19,21,23,25,27,29,-1,-1,-1,-1,-1,-1,-1,-1,-1,-1,-1,-1,-1,-1,-1,-1],"loss_changes":[1.9663675E6,2.3190269E5,1.7205262E5,8.365344E4,1.8034645E5,3.5725453E4,3.51705E4,3.9110875E4,1.24386625E5,1.9808914E4,1.87945E4,3.1025102E4,1.08761875E4,7.6513438E3,5.596875E3,0E0,0E0,0E0,0E0,0E0,0E0,0E0,0E0,0E0,0E0,0E0,0E0,0E0,0E0,0E0,0E0],"parents":[2147483647,0,0,1,1,2,2,3,3,4,4,5,5,6,6,7,7,8,8,9,9,10,10,11,11,12,12,13,13,14,14],"right_children":[2,4,6,8,10,12,14,16,18,20,22,24,26,28,30,-1,-1,-1,-1,-1,-1,-1,-1,-1,-1,-1,-1,-1,-1,-1,-1],"split_conditions":[5.3869045E-1,2.051154E-1,6.342988E-1,4.2708334E-1,